\data\
ngram 1=29
ngram 2=62
ngram 3=69
ngram 4=69
ngram 5=69

\1-grams:
-1.215473	</s>	0.000000
-1.891337	<s>	-0.313619
-0.936735	_	-0.308801
-1.725869	a	-0.170696
-1.725869	b	-0.170696
-1.725869	c	-0.170696
-1.725869	d	-0.170696
-1.054115	e	-0.248149
-1.725869	f	-0.170696
-1.725869	g	-0.077015
-1.725869	h	-0.106053
-1.326162	i	-0.121335
-1.572193	j	-0.115575
-1.725869	k	-0.170696
-1.725869	l	-0.170696
-1.725869	m	-0.170696
-1.475084	n	-0.077015
-1.127343	o	-0.120177
-1.725869	p	-0.170696
-1.725869	q	-0.170696
-1.127343	r	-0.133183
-1.572193	s	-0.106053
-1.326162	t	-0.115575
-1.475084	u	-0.170696
-1.475084	v	-0.397940
-1.572193	w	-0.106053
-1.572193	x	-0.133183
-1.572193	y	-0.115575
-1.725869	z	-0.170696

\2-grams:
-0.532584	<s> o	-0.356547
-0.552744	<s> t	-0.102373
-1.564024	_ b	-0.075721
-1.564024	_ d	-0.075721
-0.783074	_ f	-0.269218
-1.505735	_ j	-0.075721
-1.564024	_ l	-0.075721
-1.203473	_ o	-0.036212
-1.564024	_ q	-0.075721
-1.407668	_ s	-0.036212
-0.630252	_ t	-0.364516
-0.471483	a z	-0.075721
-0.425569	b r	-0.075721
-0.471483	c k	-0.075721
-0.425569	d o	-0.075721
-0.424302	e _	-0.075721
-1.065657	e e	-0.075721
-1.149744	e n	0.000000
-1.106610	e r	-0.075721
-0.711410	f i	-0.075721
-0.671935	f o	-0.048986
-0.586058	g _	-0.075721
-0.750827	h e	-0.075721
-0.777911	h r	-0.075721
-1.020149	i c	-0.075721
-0.972337	i v	-0.075721
-0.993525	i x	-0.036212
-0.586166	j u	-0.164309
-0.394603	k _	-0.075721
-0.471483	l a	-0.075721
-0.471483	m p	-0.075721
-0.749254	n _	-0.036212
-0.809141	n e	-0.075721
-0.920030	o _	-0.075721
-1.330176	o g	-0.036212
-1.141912	o n	-0.164309
-1.237363	o u	-0.075721
-1.237363	o v	-0.075721
-1.277315	o w	-0.075721
-1.277315	o x	-0.075721
-0.464609	p s	-0.075721
-0.458913	q u	-0.075721
-0.787773	r _	-0.132729
-0.923960	r e	-0.075721
-0.962357	r o	-0.075721
-0.948420	r t	-0.164309
-0.701254	s _	-0.075721
-0.837741	s i	-0.075721
-1.034841	t h	-0.095555
-1.006973	t w	-0.036212
-1.006973	t y	-0.102373
-0.853296	u i	-0.075721
-0.917134	u m	-0.075721
-0.799481	u r	-0.075721
-0.197012	v e	-0.048986
-0.871061	w n	-0.075721
-0.777911	w o	-0.036212
-0.814911	x </s>	0.000000
-0.618165	x _	-0.036212
-0.786515	y </s>	0.000000
-0.687232	y _	-0.023803
-0.464609	z y	-0.036212

\3-grams:
-0.227873	<s> o n	-0.301030
-0.548352	<s> t h	-0.301030
-0.323041	_ b r	-0.301030
-0.323041	_ d o	-0.301030
-0.637213	_ f i	-0.301030
-0.346295	_ f o	-0.176091
-0.422706	_ j u	-0.301030
-0.352951	_ l a	-0.301030
-0.875291	_ o v	-0.301030
-0.344872	_ q u	-0.301030
-0.670248	_ s i	-0.301030
-0.239676	_ t h	-0.204120
-1.127774	_ t w	-0.301030
-0.348544	a z y	-0.124939
-0.599280	b r o	-0.301030
-0.302255	c k _	-0.301030
-0.700550	d o g	-0.124939
-0.768474	e _ f	-0.301030
-1.260253	e _ l	-0.301030
-1.260253	e _ q	-0.301030
-1.188052	e _ s	-0.301030
-0.640542	e _ t	-0.301030
-0.322201	e e _	-0.301030
-0.527343	e r _	-0.301030
-0.602887	f i v	-0.301030
-0.978594	f o u	-0.301030
-0.997804	f o x	-0.301030
-0.447574	g _ t	-0.301030
-0.322201	h e _	-0.301030
-0.584904	h r e	-0.301030
-0.352951	i c k	-0.301030
-0.158851	i v e	-0.301030
-0.655826	i x </s>	0.000000
-0.400226	j u m	-0.301030
-0.737734	k _ b	-0.301030
-0.352951	l a z	-0.301030
-0.348544	m p s	-0.301030
-0.635252	n _ f	-0.124939
-0.322201	n e _	-0.301030
-0.447574	o _ t	-0.301030
-0.496709	o g _	-0.301030
-0.375404	o n e	-0.301030
-0.532702	o u r	-0.301030
-0.158851	o v e	-0.301030
-0.563779	o w n	-0.301030
-0.440865	o x _	-0.301030
-0.485295	p s _	-0.301030
-0.556337	q u i	-0.301030
-0.757639	r _ f	-0.301030
-0.417265	r _ t	-0.301030
-0.634111	r e e	-0.301030
-0.689610	r o w	-0.301030
-0.417472	r t y	0.000000
-0.672481	s _ o	-0.301030
-0.610370	s i x	-0.124939
-0.522972	t h e	-0.301030
-0.759890	t h r	-0.301030
-0.631865	t w o	-0.124939
-0.429074	t y _	0.000000
-0.619442	u i c	-0.301030
-0.352951	u m p	-0.301030
-0.527343	u r _	-0.124939
-0.409357	v e _	-0.301030
-0.909313	v e r	-0.301030
-0.509154	w n _	-0.124939
-0.719876	w o _	-0.301030
-0.963725	x _ j	-0.301030
-1.101460	y _ d	-0.301030
-0.570182	z y _	-0.301030

\4-grams:
-0.148343	<s> o n e	-0.301030
-0.187108	<s> t h e	-0.301030
-0.203562	_ b r o	-0.602060
-0.222112	_ d o g	-0.204120
-0.204285	_ f i v	-0.301030
-0.625799	_ f o u	-0.301030
-0.631395	_ f o x	-0.425969
-0.155554	_ j u m	-0.425969
-0.141565	_ l a z	-0.522879
-0.072203	_ o v e	-0.522879
-0.194582	_ q u i	-0.602060
-0.205769	_ s i x	-0.176091
-0.359062	_ t h e	-0.778151
-0.631453	_ t h r	-0.301030
-0.209920	_ t w o	-0.204120
-0.345072	a z y _	-0.425969
-0.220275	b r o w	-0.602060
-0.228074	c k _ b	-0.602060
-0.310714	d o g _	-0.301030
-0.139509	e _ f o	-0.301030
-0.141565	e _ l a	-0.522879
-0.139067	e _ q u	-0.602060
-0.216928	e _ s i	-0.301030
-0.269819	e _ t w	-0.425969
-0.232687	e e _ f	-0.301030
-0.160336	e r _ t	-0.522879
-0.072203	f i v e	-0.301030
-0.189334	f o u r	-0.301030
-0.166740	f o x _	-0.425969
-0.103510	g _ t h	-0.301030
-0.556798	h e _ l	-0.522879
-0.556798	h e _ q	-0.602060
-0.210344	h r e e	-0.301030
-0.125347	i c k _	-0.602060
-0.158134	i v e _	-0.301030
-0.141565	j u m p	-0.522879
-0.132153	k _ b r	-0.602060
-0.140206	l a z y	-0.301030
-0.178120	m p s _	-0.522879
-0.230709	n _ f o	-0.425969
-0.211548	n e _ t	-0.425969
-0.103510	o _ t h	-0.301030
-0.168514	o g _ t	-0.301030
-0.131882	o n e _	-0.425969
-0.188113	o u r _	-0.176091
-0.250565	o v e r	-0.522879
-0.183881	o w n _	-0.380211
-0.256212	o x _ j	-0.425969
-0.217320	p s _ o	-0.522879
-0.207541	q u i c	-0.602060
-0.210927	r _ f i	-0.301030
-0.103510	r _ t h	-0.602060
-0.131882	r e e _	-0.301030
-0.196189	r o w n	-0.602060
-0.246699	s _ o v	-0.522879
-0.381255	s i x </s>	0.000000
-0.131882	t h e _	-0.564271
-0.200634	t h r e	-0.301030
-0.405662	t w o _	-0.301030
-0.141565	u i c k	-0.602060
-0.140206	u m p s	-0.522879
-0.419023	u r _ f	-0.301030
-0.273739	v e _ s	-0.301030
-0.188113	v e r _	-0.522879
-0.372938	w n _ f	-0.301030
-0.168514	w o _ t	-0.301030
-0.161835	x _ j u	-0.425969
-0.132153	y _ d o	-0.425969
-0.267942	z y _ d	-0.425969

\5-grams:
-0.060954	<s> o n e _
-0.060954	<s> t h e _
-0.045495	_ b r o w
-0.167102	_ d o g _
-0.034603	_ f i v e
-0.084430	_ f o u r
-0.055299	_ f o x _
-0.047844	_ j u m p
-0.037523	_ l a z y
-0.061239	_ o v e r
-0.043340	_ q u i c
-0.214354	_ s i x </s>
-0.019383	_ t h e _
-0.088833	_ t h r e
-0.207192	_ t w o _
-0.082314	a z y _ d
-0.041374	b r o w n
-0.029462	c k _ b r
-0.076134	d o g _ t
-0.208765	e _ f o u
-0.037844	e _ l a z
-0.041092	e _ q u i
-0.090810	e _ s i x
-0.067391	e _ t w o
-0.064177	e e _ f o
-0.028548	e r _ t h
-0.071909	f i v e _
-0.083950	f o u r _
-0.079416	f o x _ j
-0.143434	g _ t h e
-0.037844	h e _ l a
-0.030818	h e _ q u
-0.060954	h r e e _
-0.046789	i c k _ b
-0.115650	i v e _ s
-0.037523	j u m p s
-0.042656	k _ b r o
-0.139129	l a z y _
-0.054587	m p s _ o
-0.147138	n _ f o x
-0.082772	n e _ t w
-0.209842	o _ t h r
-0.048678	o g _ t h
-0.067831	o n e _ t
-0.231093	o u r _ f
-0.048400	o v e r _
-0.119257	o w n _ f
-0.053871	o x _ j u
-0.060486	p s _ o v
-0.031304	q u i c k
-0.090240	r _ f i v
-0.065822	r _ t h e
-0.100943	r e e _ f
-0.039194	r o w n _
-0.020429	s _ o v e
-0.404666	t h e _ l
-0.314471	t h e _ q
-0.092560	t h r e e
-0.076134	t w o _ t
-0.028110	u i c k _
-0.046208	u m p s _
-0.092782	u r _ f i
-0.095058	v e _ s i
-0.042207	v e r _ t
-0.100211	w n _ f o
-0.048678	w o _ t h
-0.052024	x _ j u m
-0.070651	y _ d o g
-0.044978	z y _ d o

\end\
