\data\
ngram 1=74
ngram 2=1068
ngram 3=5628
ngram 4=13290
ngram 5=19045

\1-grams:
-1.358780	</s>	0.000000
-2.733399	<s>	-1.989234
-1.366231	_	-1.010754
-1.467315	a	-0.866147
-1.733817	aː	-0.484907
-1.854173	b	-0.558909
-2.365474	bː	-0.207764
-1.770351	d	-0.645211
-2.296271	dz	-0.273488
-1.831653	dʒ	-0.626087
-2.549554	dʒː	-0.226701
-2.365474	dː	-0.211860
-1.517533	e	-0.761931
-1.854173	eː	-0.346692
-1.789839	f	-0.526999
-2.666176	fp	-0.305882
-2.296271	fː	-0.318976
-1.903052	h	-0.306078
-1.422307	i	-0.848297
-1.733817	iː	-0.492626
-1.612348	j	-0.730722
-1.716642	k	-0.711327
-2.056600	kː	-0.371156
-1.599301	l	-0.633968
-2.095096	lː	-0.414852
-1.810243	m	-0.597983
-2.184137	mː	-0.295334
-1.654020	n	-0.699689
-2.021240	nː	-0.525924
-1.507014	o	-0.748029
-1.854173	oː	-0.296518
-1.929722	p	-0.611637
-2.184137	pː	-0.187885
-1.562358	r	-0.671723
-2.095096	rː	-0.404339
-1.684203	s	-0.683324
-2.095096	sː	-0.432952
-1.639681	t	-0.701214
-1.810243	tʃ	-0.680552
-2.682630	tʃː	-0.126550
-1.988544	tː	-0.440096
-1.476905	u	-0.757142
-2.021240	uː	-0.220637
-1.810243	v	-0.599469
-2.616123	vː	0.000000
-1.716642	w	-0.472978
-2.666176	wː	0.000000
-1.789839	z	-0.634907
-2.682630	zː	-0.045757
-2.056600	ŋ	-0.417242
-2.682630	ŋː	-0.225025
-1.733817	ɔ	-0.449226
-2.666176	ɔː	0.000000
-1.405533	ə	-0.807613
-2.296271	əː	-0.268732
-1.507014	ɛ	-0.792975
-2.137339	ɛː	-0.189939
-1.789839	ɡ	-0.622472
-2.365474	ɡː	-0.281457
-2.184137	ɣ	-0.339175
-2.616123	ɣː	0.000000
-1.612348	ɪ	-0.591409
-2.616123	ɪː	0.000000
-2.296271	ɲ	-0.236040
-2.666176	ɲː	0.000000
-2.021240	ʃ	-0.573805
-2.447833	ʃː	-0.183288
-2.021240	ʊ	-0.356047
-2.666176	ʊː	-0.179726
-2.021240	ʌ	-0.141480
-2.447833	ʌː	-0.268732
-1.958138	ʎ	-0.514896
-2.365474	ʎː	-0.180842
-1.958138	ʒ	-0.456043

\2-grams:
-1.016451	<s> a	-1.258909
-2.287944	<s> aː	-1.098353
-2.109306	<s> b	-0.579231
-1.357009	<s> d	-1.249390
-1.543773	<s> dʒ	-1.187673
-1.004163	<s> e	-1.669450
-2.248667	<s> eː	-0.847452
-1.812456	<s> f	-0.951982
-3.233525	<s> fp	-0.586470
-3.537659	<s> h	0.000000
-1.121213	<s> i	-1.376191
-3.488355	<s> iː	0.000000
-1.865907	<s> j	-0.990048
-1.212424	<s> k	-1.370045
-0.749033	<s> l	-1.831495
-1.424019	<s> m	-1.118374
-1.502127	<s> n	-1.014927
-1.699943	<s> o	-1.184768
-3.151572	<s> oː	-0.370790
-1.214860	<s> p	-1.323099
-2.526226	<s> r	-0.286890
-1.004014	<s> s	-1.545156
-1.471810	<s> t	-1.056519
-2.208344	<s> tʃ	-0.581172
-1.720232	<s> u	-1.144454
-2.227478	<s> v	-0.576977
-2.707899	<s> w	-0.420249
-3.483959	<s> z	-0.160653
-3.488355	<s> ɔ	0.000000
-2.394393	<s> ə	-0.553396
-1.739423	<s> ɛ	-0.900520
-3.626111	<s> ɛː	-0.160653
-2.898998	<s> ɡ	-0.285500
-3.693156	<s> ɣ	-0.270683
-2.141775	<s> ɪ	-0.791039
-2.444410	<s> ʃ	-0.372283
-3.233525	<s> ʊː	-0.370790
-3.585979	<s> ʌ	-0.285440
-2.226653	<s> ʌː	-1.170046
-2.475917	<s> ʎ	-0.586516
-3.389252	<s> ʒ	0.000000
-1.327311	_ a	-0.855554
-1.953674	_ aː	-0.399444
-1.587170	_ b	-0.695290
-2.838775	_ bː	-0.067055
-1.383580	_ d	-0.922823
-2.168660	_ dz	-0.210882
-1.508563	_ dʒ	-0.850580
-2.782949	_ dː	-0.160653
-1.370058	_ e	-0.737643
-2.177750	_ eː	-0.215345
-1.566997	_ f	-0.718627
-2.187154	_ fp	-0.507288
-2.648097	_ h	0.000000
-1.297021	_ i	-0.824382
-2.296469	_ iː	-0.167093
-1.587089	_ j	-0.672532
-1.425806	_ k	-0.865115
-2.865691	_ kː	0.000000
-1.345052	_ l	-0.915932
-2.741670	_ lː	0.000000
-1.454364	_ m	-0.706709
-2.409987	_ mː	-0.152798
-1.399801	_ n	-0.766011
-2.666184	_ nː	-0.160653
-1.473459	_ o	-0.541767
-2.443118	_ oː	-0.179936
-1.422510	_ p	-0.861565
-2.540846	_ pː	-0.204035
-1.582240	_ r	-0.575909
-2.741670	_ rː	0.000000
-1.390450	_ s	-0.840189
-2.741670	_ sː	0.000000
-1.470715	_ t	-0.771789
-1.678680	_ tʃ	-0.645351
-2.612151	_ tʃː	-0.114586
-1.470653	_ u	-0.629383
-1.584738	_ v	-0.669455
-1.737945	_ w	-0.488580
-1.888333	_ z	-0.444924
-2.681063	_ ŋ	0.000000
-2.393550	_ ɔ	-0.114586
-1.532334	_ ə	-0.546558
-1.486737	_ ɛ	-0.658136
-2.759431	_ ɛː	0.000000
-1.744902	_ ɡ	-0.538102
-2.540846	_ ɣ	-0.208129
-1.509514	_ ɪ	-0.721987
-2.322627	_ ɲ	-0.410378
-1.844586	_ ʃ	-0.528505
-2.378707	_ ʊ	-0.218580
-2.034241	_ ʌ	-0.445446
-2.116419	_ ʌː	-0.548681
-1.783250	_ ʎ	-0.503548
-1.982997	_ ʒ	-0.283926
-1.233351	a </s>	0.000000
-1.180462	a _	-0.951794
-1.625191	a b	-0.352420
-2.258475	a bː	-0.152798
-1.617827	a d	-0.480163
-1.683251	a dʒ	-0.298761
-2.611321	a dː	-0.168712
-1.974885	a e	-0.165072
-1.877092	a f	-0.220320
-2.593699	a fː	-0.104912
-2.486691	a h	-0.160653
-1.441908	a i	-0.480569
-2.359251	a iː	-0.067055
-1.505052	a j	-0.438201
-1.585922	a k	-0.510148
-1.814593	a kː	-0.306378
-1.408634	a l	-0.634989
-1.737754	a lː	-0.434263
-1.460395	a m	-0.515378
-2.051282	a mː	-0.243785
-1.306643	a n	-0.803162
-1.470679	a nː	-0.633350
-1.970751	a o	-0.187255
-1.603225	a p	-0.536604
-1.781072	a pː	-0.309395
-1.405264	a r	-0.627059
-1.863592	a rː	-0.222683
-1.557789	a s	-0.494304
-2.220300	a sː	-0.320210
-1.395161	a t	-0.740566
-1.681133	a tʃ	-0.357934
-2.734725	a tʃː	0.000000
-1.580637	a tː	-0.522457
-1.554834	a u	-0.462070
-1.480061	a v	-0.640770
-1.585922	a w	-0.361771
-1.747818	a z	-0.406236
-2.668930	a zː	-0.114586
-1.452670	a ŋ	-0.662067
-2.734725	a ŋː	-0.270683
-2.214994	a ɛ	-0.179936
-1.991245	a ɡ	-0.276321
-2.668380	a ɡː	-0.160653
-2.389091	a ɲ	-0.258835
-1.636477	a ʃ	-0.330413
-2.689388	a ʃː	0.000000
-1.957503	a ʎ	-0.383050
-2.668380	a ʎː	0.000000
-2.192006	a ʒ	-0.171567
-0.857505	aː </s>	0.000000
-0.817861	aː _	-0.265053
-1.658582	aː d	-0.067055
-1.936249	aː dʒ	-0.243524
-1.884593	aː k	0.000000
-1.608520	aː l	-0.285440
-1.785978	aː lː	0.000000
-1.725683	aː m	-0.067055
-0.979901	aː n	-0.386195
-1.595812	aː r	-0.261440
-0.798508	aː t	-0.405534
-1.314360	aː v	-0.227333
-1.779558	aː ŋ	-0.270683
-1.720089	aː ɡ	0.000000
-1.240950	b </s>	0.000000
-1.181060	b _	-0.165181
-1.141843	b a	-0.332355
-1.855828	b aː	-0.160653
-1.346577	b e	-0.213584
-2.085616	b eː	0.000000
-1.135698	b i	-0.248155
-1.762202	b j	-0.093575
-1.281678	b l	-0.234403
-1.203296	b o	-0.213691
-1.841283	b oː	-0.067055
-1.210484	b r	-0.312169
-2.182699	b rː	0.000000
-1.143083	b u	-0.236260
-1.805615	b ɔ	-0.032235
-1.041115	b ə	-0.317142
-1.203296	b ɛ	-0.211832
-1.283390	b ɪ	-0.165281
-1.940439	b ʊ	0.000000
-1.940439	b ʌ	-0.114586
-0.723393	bː e	-0.148152
-1.021442	bː r	-0.114586
-1.228184	bː u	-0.104912
-0.929305	bː ə	-0.285440
-1.191789	d </s>	0.000000
-1.042769	d _	-0.389641
-0.992064	d a	-0.369484
-1.212779	d e	-0.222363
-1.118064	d i	-0.323769
-2.125559	d iː	-0.243524
-1.475892	d j	-0.170847
-1.905605	d l	-0.270683
-2.067967	d lː	0.000000
-1.929828	d n	0.000000
-1.167125	d o	-0.318419
-2.188557	d oː	0.000000
-1.324707	d r	-0.299039
-1.312512	d u	-0.288880
-1.594194	d ɔ	-0.179780
-0.910479	d ə	-0.507537
-1.211586	d ɛ	-0.292525
-1.397394	d ɪ	-0.210747
-1.063159	dz _	0.000000
-0.805533	dz a	-0.410378
-1.323947	dz e	0.000000
-1.289064	dz i	0.000000
-1.096268	dz o	-0.049296
-1.028787	dz u	-0.049296
-1.073237	dz ə	-0.270683
-0.926519	dʒ </s>	0.000000
-0.997575	dʒ _	-0.345554
-1.200327	dʒ a	-0.268059
-1.847070	dʒ dʒ	-0.256892
-1.273126	dʒ e	-0.284215
-0.965867	dʒ i	-0.368650
-1.620673	dʒ iː	-0.049296
-1.205208	dʒ o	-0.259185
-2.111590	dʒ oː	-0.243524
-1.201542	dʒ u	-0.310118
-1.820976	dʒ ɔ	-0.114586
-1.041772	dʒ ə	-0.444924
-1.096678	dʒ ɛ	-0.342407
-1.216393	dʒ ɪ	-0.178511
-0.639584	dʒː </s>	0.000000
-0.644634	dʒː ə	0.000000
-1.193132	dː e	-0.243524
-1.190046	dː o	0.000000
-0.961608	dː r	-0.182678
-0.871549	dː ə	-0.274576
-1.003554	dː ʒ	0.000000
-1.106634	e </s>	0.000000
-1.013373	e _	-0.854838
-1.925771	e a	-0.171567
-2.423871	e b	-0.243524
-2.457661	e bː	0.000000
-1.705916	e d	-0.180679
-1.714528	e dʒ	-0.319552
-2.457661	e dː	-0.270683
-2.255922	e f	-0.104912
-2.309525	e h	-0.270683
-1.542412	e i	-0.382790
-1.251724	e j	-0.615521
-1.594142	e k	-0.282610
-2.370689	e kː	-0.191931
-1.272095	e l	-0.345175
-1.811314	e lː	-0.285486
-1.655206	e m	-0.179780
-1.195785	e n	-0.588718
-1.623692	e nː	-0.401992
-1.776258	e o	-0.196631
-1.314792	e r	-0.371071
-2.384028	e rː	0.000000
-1.325314	e s	-0.469222
-1.811314	e sː	-0.283956
-1.297890	e t	-0.730642
-1.945434	e tʃ	-0.232081
-1.427231	e tː	-0.406305
-2.147669	e u	-0.243524
-1.519897	e v	-0.370093
-2.217345	e w	-0.270683
-1.603022	e z	-0.360111
-1.678587	e ŋ	-0.405552
-1.810759	e ə	-0.352386
-1.773183	e ɡ	-0.220448
-2.679135	e ɡː	-0.243524
-2.009088	e ɣ	-0.285527
-2.441902	e ɲ	0.000000
-1.577070	e ʃ	-0.156998
-2.104002	e ʎ	-0.049296
-2.173211	e ʎː	-0.194699
-0.883990	eː </s>	0.000000
-0.885106	eː _	-0.162973
-1.100436	eː j	-0.294280
-1.518927	eː k	0.000000
-1.243583	eː n	-0.265114
-1.509416	eː s	0.000000
-1.000176	eː t	-0.249708
-1.543657	eː v	0.000000
-1.835965	eː ŋ	0.000000
-1.361482	eː ə	-0.285440
-1.538597	eː ɡ	0.000000
-1.469970	f </s>	0.000000
-1.207837	f _	-0.114586
-1.162752	f a	-0.258708
-1.821706	f aː	0.000000
-1.405190	f e	-0.192328
-2.051859	f eː	-0.243524
-1.051977	f i	-0.247776
-1.550773	f j	-0.222057
-1.325847	f l	-0.327941
-1.946598	f n	0.000000
-1.168380	f o	-0.284165
-1.241689	f r	-0.247993
-1.164152	f u	-0.302334
-1.765715	f w	-0.273274
-1.771354	f ɔ	-0.114586
-0.896543	f ə	-0.319401
-1.061836	f ɛ	-0.275623
-1.921825	f ɪ	-0.091923
-0.725125	fp </s>	0.000000
-0.443499	fp _	-0.149972
-1.032563	fː e	-0.104912
-1.247146	fː i	-0.067055
-1.012946	fː ə	-0.243524
-0.581548	fː ɛ	-0.093575
-1.046152	fː ɪ	0.000000
-0.539423	h </s>	0.000000
-0.751273	h _	-0.186493
-1.263567	h a	0.000000
-1.222280	h e	-0.160653
-1.232201	i </s>	0.000000
-1.117093	i _	-0.959436
-1.387706	i a	-0.593010
-2.206485	i aː	-0.179936
-1.917697	i b	-0.136242
-1.621765	i d	-0.366901
-1.913919	i dʒ	-0.154926
-1.536948	i e	-0.358668
-2.123476	i f	-0.200691
-2.625257	i fː	-0.160653
-2.465228	i h	0.000000
-1.368220	i j	-0.684422
-1.536318	i k	-0.455122
-1.945102	i kː	-0.189722
-1.419523	i l	-0.581388
-1.792638	i lː	-0.384960
-1.765083	i m	-0.226271
-1.268423	i n	-0.682173
-1.708118	i nː	-0.483928
-1.428531	i o	-0.437687
-1.873031	i p	-0.253443
-1.454378	i r	-0.624163
-2.324425	i rː	-0.114586
-1.426813	i s	-0.555161
-1.838815	i sː	-0.407123
-1.442278	i t	-0.692869
-1.725800	i tʃ	-0.483788
-2.296317	i tː	-0.111337
-1.638990	i u	-0.396627
-1.656516	i v	-0.545078
-1.623688	i z	-0.441868
-1.710466	i ŋ	-0.459900
-1.954908	i ɔ	-0.133734
-1.397214	i ə	-0.652759
-1.511797	i ɛ	-0.394349
-1.762421	i ɡ	-0.188060
-1.957398	i ɣ	-0.586470
-1.774255	i ɪ	-0.221970
-2.364977	i ɲ	-0.093575
-1.786985	i ʃ	-0.376104
-2.665790	i ʃː	0.000000
-1.703460	i ʎ	-0.515255
-2.587740	i ʎː	-0.067055
-2.168376	i ʒ	-0.127162
-0.700870	iː </s>	0.000000
-0.966663	iː _	-0.105523
-1.581146	iː j	-0.285440
-1.609827	iː k	-0.160653
-1.629000	iː l	0.000000
-1.064891	iː n	-0.255376
-1.717028	iː p	0.000000
-1.373220	iː r	-0.410378
-1.388214	iː t	-0.410378
-1.685661	iː z	0.000000
-0.776279	iː ə	-0.653416
-1.594956	iː ɛ	0.000000
-1.157001	j </s>	0.000000
-1.057514	j _	-0.377907
-0.935333	j a	-0.449428
-1.969027	j aː	0.000000
-2.209960	j d	-0.104912
-1.172819	j e	-0.355306
-2.250818	j eː	-0.243524
-1.163961	j i	-0.338439
-2.013487	j k	-0.067055
-1.989364	j n	-0.270683
-1.068636	j o	-0.459752
-2.001258	j s	-0.179936
-1.983538	j t	-0.104912
-1.066529	j u	-0.366423
-2.045655	j v	-0.270683
-1.642305	j ɔ	-0.171567
-0.954675	j ə	-0.736980
-0.985253	j ɛ	-0.396734
-2.373801	j ɣ	-0.104912
-1.747858	j ɪ	-0.089122
-1.076139	k </s>	0.000000
-1.076889	k _	-0.461364
-1.166955	k a	-0.458190
-2.080049	k aː	-0.179936
-1.311975	k e	-0.301762
-2.127946	k eː	-0.067055
-2.092993	k h	-0.179936
-1.192759	k i	-0.326869
-1.281923	k j	-0.303610
-1.471226	k l	-0.252633
-2.178007	k n	0.000000
-1.170664	k o	-0.352487
-2.127946	k oː	0.000000
-1.465680	k r	-0.261429
-2.014814	k s	-0.160653
-1.139121	k u	-0.351510
-1.377441	k w	-0.416091
-1.430189	k ɔ	-0.170344
-1.013210	k ə	-0.539145
-1.271228	k ɛ	-0.409942
-1.705739	k ɪ	-0.191720
-2.181788	k ʊ	-0.038979
-2.181788	k ʌ	-0.049296
-1.219103	kː </s>	0.000000
-1.426093	kː _	0.000000
-1.249783	kː a	-0.104912
-1.262185	kː e	-0.208129
-1.019624	kː i	-0.196631
-1.477868	kː j	-0.191931
-1.524527	kː l	-0.114586
-0.884500	kː o	-0.132912
-1.430889	kː u	-0.137491
-0.873052	kː ə	-0.375127
-1.259676	kː ɛ	-0.270683
-1.702872	kː ɪ	-0.243524
-1.106290	l </s>	0.000000
-1.084498	l _	-0.617912
-1.227418	l a	-0.439122
-1.749871	l aː	-0.160653
-2.123694	l b	-0.067055
-1.758400	l d	-0.127685
-1.233806	l e	-0.392408
-1.901404	l eː	-0.111337
-2.231395	l f	0.000000
-1.138434	l i	-0.461460
-1.866895	l iː	-0.229609
-1.395988	l j	-0.400156
-1.745668	l k	-0.186559
-2.060837	l m	-0.104912
-2.025758	l n	0.000000
-1.202419	l o	-0.369374
-2.078473	l oː	-0.146387
-2.004206	l s	-0.160653
-1.725245	l t	-0.215966
-2.060837	l tʃ	0.000000
-1.260738	l u	-0.333926
-2.188174	l uː	-0.160653
-2.060837	l v	-0.179936
-2.094721	l z	0.000000
-1.517225	l ɔ	-0.226975
-0.989433	l ə	-0.560939
-1.232521	l ɛ	-0.377680
-2.224400	l ɛː	0.000000
-1.717337	l ɪ	-0.173591
-2.188174	l ʌ	-0.270683
-1.794296	l ʎ	-0.141636
-1.370061	lː </s>	0.000000
-1.196256	lː _	-0.123253
-0.988186	lː a	-0.227333
-0.842004	lː e	-0.317859
-1.394046	lː i	-0.032235
-1.422715	lː o	-0.224683
-1.222442	lː u	-0.180026
-0.831750	lː ə	-0.610192
-0.993056	lː ɛ	-0.194699
-1.081505	m </s>	0.000000
-1.114535	m _	-0.407161
-1.127474	m a	-0.417827
-1.752608	m aː	-0.186559
-1.285310	m b	-0.370421
-1.354458	m e	-0.195578
-2.188979	m eː	-0.104912
-1.638367	m f	-0.294280
-1.089453	m i	-0.360938
-1.928340	m iː	-0.187255
-1.915723	m j	-0.067055
-1.895052	m n	0.000000
-1.352616	m o	-0.258656
-2.021776	m oː	0.000000
-1.242895	m p	-0.287132
-1.293741	m u	-0.290447
-2.272109	m uː	0.000000
-1.624399	m w	-0.315187
-1.752608	m ɔ	-0.133734
-1.119879	m ə	-0.415276
-1.298583	m ɛ	-0.361922
-1.369481	m ɪ	-0.268847
-2.076574	m ʊ	-0.067055
-2.020493	m ʌ	-0.194699
-1.028877	mː </s>	0.000000
-1.262850	mː _	-0.179936
-0.917498	mː a	-0.142789
-1.234397	mː i	-0.076214
-1.545192	mː j	-0.243524
-1.496311	mː o	0.000000
-1.251596	mː u	-0.204035
-0.908116	mː ə	-0.283956
-1.059711	mː ɛ	-0.114586
-1.125113	n </s>	0.000000
-1.147612	n _	-0.695783
-1.357078	n a	-0.402850
-1.721112	n aː	-0.146033
-1.231299	n d	-0.549472
-1.397065	n dʒ	-0.439511
-1.364488	n e	-0.378407
-2.336147	n eː	0.000000
-1.434841	n f	-0.426878
-1.284311	n i	-0.423345
-1.930585	n iː	-0.179936
-1.340561	n j	-0.423436
-1.642238	n k	-0.239832
-2.168274	n m	-0.270683
-1.328014	n o	-0.397185
-2.142381	n oː	-0.049296
-1.573088	n s	-0.377557
-1.379696	n t	-0.478707
-1.590339	n tʃ	-0.376905
-1.396193	n u	-0.294731
-2.251939	n uː	0.000000
-1.656639	n v	-0.289881
-1.653721	n z	-0.362665
-1.930585	n ɔ	-0.232402
-1.175190	n ə	-0.601847
-1.488886	n ɛ	-0.283364
-1.731425	n ɡ	-0.337324
-1.622846	n ɪ	-0.198400
-2.327319	n ɲ	-0.160653
-2.199784	n ʃ	-0.135352
-0.810661	nː </s>	0.000000
-0.862700	nː _	-0.267088
-0.871210	nː a	-0.398108
-1.864049	nː d	-0.243524
-1.190802	nː e	-0.218580
-1.076207	nː i	-0.287011
-1.850185	nː iː	0.000000
-1.520203	nː o	-0.146033
-1.561239	nː u	0.000000
-0.925066	nː ə	-0.683380
-1.520203	nː ɛ	0.000000
-1.142260	o </s>	0.000000
-1.074742	o _	-0.795073
-1.938742	o a	-0.114586
-1.984034	o b	-0.140410
-1.738512	o d	-0.213323
-2.469179	o dz	0.000000
-2.093854	o dʒ	-0.232081
-2.486537	o dː	-0.270683
-1.804779	o f	-0.164048
-2.325599	o h	-0.270683
-1.611991	o i	-0.224396
-1.912337	o j	-0.186626
-1.256308	o k	-0.508876
-1.774786	o kː	-0.238248
-1.248049	o l	-0.613568
-2.031034	o lː	-0.268897
-1.424797	o m	-0.443267
-2.180894	o mː	-0.194699
-1.215688	o n	-0.573131
-1.712639	o nː	-0.373883
-1.761242	o p	-0.283407
-2.436414	o pː	-0.261440
-1.145134	o r	-0.623394
-1.847335	o rː	-0.290254
-1.414174	o s	-0.453310
-2.163715	o sː	-0.137491
-1.290846	o t	-0.447751
-1.689425	o tʃ	-0.313763
-1.532877	o tː	-0.313763
-1.596084	o v	-0.468202
-1.545728	o w	-0.366881
-1.452431	o z	-0.492664
-2.342809	o ŋ	-0.160653
-1.703359	o ə	-0.386195
-1.804779	o ɡ	-0.410378
-2.469179	o ɲ	0.000000
-1.771360	o ʃ	-0.179863
-2.306233	o ʎ	-0.204035
-0.856527	oː </s>	0.000000
-1.079798	oː _	-0.093575
-1.627264	oː k	-0.104912
-1.129675	oː l	-0.194699
-1.138575	oː n	-0.179936
-0.986772	oː r	-0.507288
-1.412349	oː s	-0.243524
-1.344093	oː t	-0.160653
-1.317861	oː ə	-0.160653
-1.158828	p </s>	0.000000
-1.117300	p _	-0.258226
-1.089971	p a	-0.336538
-1.929012	p aː	-0.089122
-1.285614	p e	-0.179900
-1.971299	p eː	-0.129319
-1.216308	p i	-0.308311
-2.092306	p iː	0.000000
-1.834588	p j	-0.265114
-1.296433	p l	-0.331080
-1.178654	p o	-0.274728
-2.155354	p oː	-0.243524
-1.184661	p r	-0.356696
-1.680518	p s	-0.114586
-1.224187	p u	-0.287039
-2.082634	p w	-0.146387
-1.379340	p ɔ	-0.237608
-1.083214	p ə	-0.372572
-2.070678	p əː	-0.270683
-1.228180	p ɛ	-0.256672
-1.538781	p ɪ	-0.177620
-2.018152	p ʊ	-0.049296
-1.121309	pː a	-0.165240
-1.337044	pː e	-0.146387
-1.451085	pː eː	0.000000
-1.053624	pː i	-0.160653
-1.075532	pː o	-0.104912
-1.124092	pː u	0.000000
-1.048902	pː ə	-0.224683
-1.228870	r </s>	0.000000
-1.142962	r _	-0.613717
-1.097713	r a	-0.531112
-1.678465	r aː	-0.132912
-2.200544	r b	-0.213013
-1.759905	r d	-0.318353
-2.189752	r dʒ	-0.111337
-1.250390	r e	-0.353682
-2.200544	r eː	-0.104912
-2.129634	r f	-0.261440
-1.111387	r i	-0.504401
-1.840704	r iː	-0.111337
-2.037937	r j	-0.160653
-1.612727	r k	-0.283660
-1.649868	r l	-0.212337
-1.691805	r m	-0.416814
-1.662346	r n	-0.270240
-1.275116	r o	-0.365073
-2.158412	r oː	-0.089122
-2.189232	r p	-0.135641
-1.505198	r s	-0.389723
-1.545853	r t	-0.437204
-2.139017	r tʃ	-0.133734
-1.271241	r u	-0.382618
-2.139017	r v	-0.155845
-2.168940	r z	0.000000
-1.678465	r ɔ	-0.161456
-1.058001	r ə	-0.506321
-1.224679	r ɛ	-0.397487
-2.496733	r ɛː	-0.243524
-2.129634	r ɡ	-0.081804
-1.452135	r ɪ	-0.227125
-2.271622	r ʃ	0.000000
-2.436301	r ʌ	0.000000
-1.084361	rː </s>	0.000000
-1.278684	rː _	-0.119680
-1.104965	rː a	-0.148152
-1.378067	rː e	-0.104912
-0.857545	rː i	-0.080715
-1.569114	rː o	-0.243524
-1.624483	rː t	0.000000
-1.555163	rː u	0.000000
-0.642745	rː ə	-0.580228
-1.375034	rː ɛ	0.000000
-1.022918	s </s>	0.000000
-1.023626	s _	-0.626983
-1.144549	s a	-0.403141
-2.035920	s aː	0.000000
-1.182926	s e	-0.269711
-2.256004	s eː	0.000000
-1.109291	s i	-0.399696
-2.035920	s iː	0.000000
-1.656342	s j	-0.223413
-1.375244	s k	-0.282648
-1.974873	s l	0.000000
-2.000952	s n	-0.067055
-1.301837	s o	-0.325195
-1.606791	s p	-0.161589
-1.956292	s r	-0.160653
-1.126889	s t	-0.566294
-1.400245	s u	-0.266530
-2.133500	s uː	0.000000
-2.066075	s v	-0.256892
-1.681361	s ɔ	-0.185659
-1.107569	s ə	-0.423339
-1.218322	s ɛ	-0.364369
-1.562984	s ɪ	-0.197228
-1.065482	sː </s>	0.000000
-0.968720	sː _	-0.080221
-0.899939	sː a	-0.284326
-1.538910	sː aː	0.000000
-1.226807	sː e	-0.179780
-1.076726	sː i	-0.115940
-1.421882	sː o	0.000000
-1.463338	sː u	-0.104912
-0.766213	sː ə	-0.482788
-1.650683	sː ɛ	0.000000
-1.134873	t </s>	0.000000
-1.090852	t _	-0.658494
-1.146437	t a	-0.573604
-1.903446	t aː	-0.137491
-1.231474	t e	-0.346373
-2.165318	t eː	0.000000
-1.282344	t i	-0.428080
-1.689140	t iː	-0.112634
-1.864074	t j	-0.072940
-1.126277	t o	-0.441621
-2.320966	t oː	-0.243524
-1.266737	t r	-0.510634
-2.248037	t rː	0.000000
-1.216504	t s	-0.625402
-2.248037	t sː	-0.104912
-1.289803	t u	-0.405501
-2.172124	t uː	0.000000
-2.062791	t w	-0.160653
-1.553128	t z	-0.325058
-1.546284	t ɔ	-0.283230
-2.348759	t ɔː	0.000000
-0.998685	t ə	-0.591016
-2.296170	t əː	-0.270683
-1.367575	t ɛ	-0.353319
-1.591300	t ɪ	-0.258567
-1.970133	t ʊ	-0.114586
-1.958283	t ʒ	-0.049296
-1.059427	tʃ </s>	0.000000
-1.019857	tʃ _	-0.378469
-1.069603	tʃ a	-0.292083
-1.904227	tʃ aː	-0.270683
-1.073582	tʃ e	-0.305529
-0.987510	tʃ i	-0.314489
-1.849792	tʃ iː	-0.160653
-1.228072	tʃ o	-0.214456
-2.145295	tʃ oː	-0.243524
-2.002035	tʃ r	0.000000
-1.224663	tʃ u	-0.158586
-1.898848	tʃ w	-0.270683
-0.951936	tʃ ə	-0.388163
-1.072783	tʃ ɛ	-0.325139
-1.307387	tʃ ɪ	-0.234536
-2.205907	tʃ ʊ	-0.243524
-2.205907	tʃ ʌ	-0.243524
-0.703988	tʃː i	0.000000
-1.010186	tʃː w	-0.243524
-0.941153	tː </s>	0.000000
-1.083575	tː _	-0.194645
-1.021709	tː a	-0.445140
-1.207422	tː e	-0.362554
-1.188898	tː i	-0.173953
-1.106960	tː o	-0.238916
-1.747629	tː r	-0.049296
-1.325738	tː u	-0.201384
-1.834557	tː ɔ	-0.243524
-0.839726	tː ə	-0.461618
-1.514976	tː ɛ	-0.265114
-1.551011	tː ɪ	0.000000
-1.333930	u </s>	0.000000
-1.184987	u _	-0.690328
-1.592341	u a	-0.306188
-1.706364	u b	-0.215952
-1.646469	u d	-0.226271
-1.989443	u dʒ	-0.146033
-1.978539	u f	-0.251112
-2.422562	u fː	-0.179936
-1.668699	u i	-0.292032
-1.428518	u k	-0.281309
-2.353519	u kː	-0.191931
-1.259408	u l	-0.545812
-2.366477	u lː	-0.067055
-1.358633	u m	-0.466267
-2.393615	u mː	-0.171567
-1.105826	u n	-0.731396
-1.369092	u nː	-0.651460
-1.432057	u o	-0.316078
-1.916795	u p	-0.249696
-2.447187	u pː	-0.270683
-1.256335	u r	-0.540159
-2.042210	u rː	-0.291609
-1.373513	u s	-0.527450
-1.858642	u sː	-0.255598
-1.302204	u t	-0.510773
-1.530629	u tʃ	-0.401992
-1.669632	u tː	-0.286413
-1.819599	u v	-0.232402
-1.556987	u w	-0.269615
-1.605087	u z	-0.375403
-1.480560	u ŋ	-0.482093
-2.010057	u ə	-0.285440
-2.078921	u ɛ	-0.179936
-1.815881	u ɡ	-0.114586
-2.174106	u ɪ	0.000000
-1.584346	u ʃ	-0.357598
-2.316814	u ʎ	-0.093575
-2.142174	u ʒ	-0.089122
-0.579553	uː </s>	0.000000
-1.142052	uː _	0.000000
-1.212186	uː l	0.000000
-1.442818	uː n	-0.243524
-1.221806	uː t	0.000000
-1.530890	v </s>	0.000000
-1.100922	v _	-0.243572
-0.896137	v a	-0.425308
-1.831167	v aː	-0.049296
-1.169106	v e	-0.220980
-0.922195	v i	-0.305419
-1.636676	v iː	-0.114586
-1.986873	v j	-0.049296
-1.580570	v o	-0.153082
-1.231619	v r	-0.281178
-1.453910	v u	-0.253713
-2.045950	v w	-0.243524
-1.882254	v ɔ	-0.104912
-0.952097	v ə	-0.476860
-1.031821	v ɛ	-0.353007
-1.986937	v ɛː	-0.270683
-1.482591	v ɪ	-0.194699
-1.963885	v ʊ	0.000000
-1.438558	w </s>	0.000000
-1.183164	w _	-0.253507
-0.952327	w a	-0.377095
-1.742204	w aː	-0.089122
-1.804715	w d	-0.114586
-2.180249	w dz	-0.104912
-1.495963	w e	-0.186559
-1.811713	w f	-0.104912
-1.194937	w i	-0.239662
-1.954146	w iː	-0.243524
-1.734377	w l	-0.067055
-0.919359	w o	-0.249702
-1.724536	w s	0.000000
-1.752458	w t	-0.160653
-1.279607	w u	-0.210752
-1.811713	w z	0.000000
-1.742204	w ɔ	-0.261440
-0.984839	w ə	-0.430467
-1.210557	w ɛ	-0.267194
-1.984563	w ɡ	-0.243524
-1.740321	w ɪ	-0.179936
-1.880349	w ʊ	-0.191931
-2.091160	w ʌ	-0.104912
-1.137456	z </s>	0.000000
-0.874304	z _	-0.406479
-1.055435	z a	-0.319738
-1.214194	z e	-0.245618
-0.973585	z i	-0.416485
-1.473671	z j	-0.038979
-1.454044	z o	-0.142789
-1.015293	z u	-0.313930
-0.938126	z ə	-0.465015
-1.058854	z ɛ	-0.242061
-1.603739	z ɪ	-0.032235
-0.868458	zː ə	-0.104912
-0.815749	ŋ </s>	0.000000
-0.939966	ŋ _	-0.278708
-1.444495	ŋ a	0.000000
-1.324271	ŋ dʒ	-0.232803
-1.595339	ŋ f	-0.270683
-1.427612	ŋ i	0.000000
-1.061281	ŋ k	-0.287553
-0.945387	ŋ ə	-0.548681
-0.980600	ŋ ɡ	-0.267418
-0.368776	ŋː ə	-0.270683
-1.251268	ɔ </s>	0.000000
-0.945013	ɔ _	-0.231351
-1.998043	ɔ dʒ	-0.146387
-1.975741	ɔ f	-0.243524
-1.634180	ɔ i	-0.104912
-1.691592	ɔ j	-0.285440
-1.176741	ɔ k	-0.255376
-1.830187	ɔ kː	0.000000
-1.305803	ɔ l	-0.042279
-1.765313	ɔ m	-0.114586
-1.854160	ɔ mː	-0.114586
-1.015600	ɔ n	-0.234388
-1.607923	ɔ nː	-0.161992
-0.806829	ɔ r	-0.421337
-1.720804	ɔ s	-0.261440
-1.898558	ɔ sː	0.000000
-1.312832	ɔ t	-0.255415
-1.765313	ɔ tʃ	0.000000
-1.872082	ɔ tː	-0.160653
-0.850425	ə </s>	0.000000
-0.868290	ə _	-1.008433
-2.300099	ə b	0.000000
-1.643307	ə d	-0.286632
-1.474579	ə dʒ	-0.309395
-2.228720	ə f	-0.127931
-2.661541	ə fː	-0.243524
-2.137732	ə i	0.000000
-2.143792	ə j	-0.160653
-1.343261	ə k	-0.341199
-2.559120	ə kː	-0.168712
-1.129891	ə l	-0.559719
-2.334396	ə lː	-0.137491
-1.438535	ə m	-0.359060
-2.414413	ə mː	0.000000
-1.166758	ə n	-0.521972
-2.116470	ə nː	-0.204035
-2.084862	ə o	-0.067055
-1.867529	ə p	-0.169490
-1.161613	ə r	-0.507675
-1.583356	ə s	-0.325986
-1.364907	ə t	-0.420981
-1.771294	ə tʃ	-0.162663
-2.109934	ə tː	-0.114586
-2.095517	ə u	0.000000
-1.348847	ə v	-0.457567
-2.195884	ə w	-0.261440
-1.645528	ə z	-0.241181
-1.845808	ə ɡ	-0.208129
-1.666044	ə ʃ	-0.370959
-1.871257	ə ʎ	-0.222057
-1.720751	ə ʒ	-0.350163
-0.468858	əː </s>	0.000000
-0.773622	əː _	0.000000
-1.141124	ɛ </s>	0.000000
-1.078978	ɛ _	-0.549899
-2.247099	ɛ b	-0.160653
-2.678029	ɛ bː	-0.243524
-1.638371	ɛ d	-0.179863
-2.435328	ɛ dz	0.000000
-1.702765	ɛ dʒ	-0.199463
-2.730737	ɛ dʒː	0.000000
-2.449758	ɛ dː	0.000000
-2.262085	ɛ f	-0.104912
-1.957062	ɛ h	-0.352386
-2.048311	ɛ i	0.000000
-2.272697	ɛ j	0.000000
-1.582303	ɛ k	-0.175654
-1.981319	ɛ kː	-0.093575
-1.257959	ɛ l	-0.586150
-1.384908	ɛ lː	-0.616380
-1.592373	ɛ m	-0.279608
-2.407832	ɛ mː	-0.104912
-1.180659	ɛ n	-0.696785
-1.481073	ɛ nː	-0.408895
-2.323355	ɛ p	-0.104912
-1.140101	ɛ r	-0.607798
-1.986338	ɛ rː	-0.321304
-1.241828	ɛ s	-0.494051
-1.666441	ɛ sː	-0.237772
-1.052757	ɛ t	-0.763822
-1.938587	ɛ tʃ	-0.193159
-1.193480	ɛ tː	-0.699441
-1.468638	ɛ v	-0.388808
-1.840196	ɛ z	-0.160653
-2.316813	ɛ ŋ	-0.274576
-1.934089	ɛ ɡ	-0.086529
-2.678029	ɛ ɡː	-0.146387
-1.791090	ɛ ʃ	-0.175402
-2.285557	ɛ ʎ	-0.160653
-2.334463	ɛ ʒ	0.000000
-0.996168	ɛː </s>	0.000000
-0.998243	ɛː _	0.000000
-0.995789	ɛː n	0.000000
-1.272432	ɛː r	0.000000
-0.993726	ɛː t	-0.285440
-1.139229	ɡ </s>	0.000000
-1.140293	ɡ _	-0.171321
-0.998857	ɡ a	-0.275353
-2.026751	ɡ aː	0.000000
-2.043476	ɡ d	-0.243524
-1.319170	ɡ j	-0.261609
-1.741550	ɡ l	-0.274576
-0.960376	ɡ o	-0.340589
-1.005837	ɡ r	-0.281178
-0.885770	ɡ u	-0.366294
-1.115140	ɡ w	-0.336392
-1.038547	ɡ ə	-0.431875
-1.796148	ɡ ɪ	-0.049296
-0.963772	ɡː o	-0.270683
-0.959129	ɡː u	-0.270683
-0.504927	ɡː ə	-0.208129
-0.655870	ɣ </s>	0.000000
-0.801273	ɣ _	-0.080221
-1.092264	ɣ i	-0.201384
-1.045422	ɣ o	-0.114586
-1.140648	ɣ w	0.000000
-1.393781	ɪ </s>	0.000000
-1.083822	ɪ _	-0.349454
-2.077924	ɪ b	-0.146387
-1.711470	ɪ d	-0.152798
-1.724453	ɪ dʒ	-0.147489
-2.006471	ɪ f	-0.056818
-1.467381	ɪ k	-0.215573
-2.153533	ɪ kː	0.000000
-1.164440	ɪ l	-0.411123
-2.110496	ɪ lː	-0.160653
-1.422160	ɪ m	-0.166155
-0.977675	ɪ n	-0.510898
-1.440043	ɪ nː	-0.427588
-1.872820	ɪ p	0.000000
-1.571894	ɪ r	-0.231031
-1.236983	ɪ s	-0.425788
-2.165495	ɪ sː	0.000000
-1.199199	ɪ t	-0.357189
-1.479706	ɪ tʃ	-0.196078
-1.566946	ɪ tː	-0.285527
-1.720082	ɪ v	-0.274576
-1.974072	ɪ w	-0.160653
-1.837228	ɪ z	-0.049296
-1.341959	ɪ ŋ	-0.307990
-1.894651	ɪ ɛ	0.000000
-2.006471	ɪ ɡ	0.000000
-1.570014	ɪ ʃ	-0.222611
-2.245141	ɪ ʃː	0.000000
-1.879047	ɪ ʎ	-0.244100
-2.230810	ɪ ʎː	-0.104912
-2.069729	ɪ ʒ	-0.115940
-1.117740	ɲ </s>	0.000000
-1.120210	ɲ _	0.000000
-0.884540	ɲ a	-0.222944
-1.082932	ɲ i	-0.261440
-1.406959	ɲ j	0.000000
-1.103886	ɲ o	-0.179936
-1.078409	ɲ ə	-0.270683
-1.409950	ʃ </s>	0.000000
-1.254461	ʃ _	-0.206727
-1.153510	ʃ a	-0.320643
-1.908385	ʃ b	-0.270683
-1.159697	ʃ e	-0.280399
-1.636691	ʃ f	-0.160653
-1.014835	ʃ i	-0.322827
-1.868365	ʃ iː	-0.160653
-1.079874	ʃ k	-0.297506
-1.730894	ʃ o	-0.056818
-1.192027	ʃ p	-0.272480
-1.476950	ʃ t	-0.179936
-1.105127	ʃ u	-0.316651
-2.077414	ʃ v	-0.146387
-1.052740	ʃ ə	-0.354547
-1.158453	ʃ ɛ	-0.320273
-1.471806	ʃ ɪ	-0.169490
-0.835324	ʃː i	-0.160653
-0.908211	ʃː u	0.000000
-0.832431	ʃː ə	-0.160653
-1.268062	ʊ </s>	0.000000
-0.955624	ʊ _	-0.080715
-1.643122	ʊ k	-0.243524
-1.595704	ʊ l	-0.104912
-0.727489	ʊ n	-0.180981
-1.552957	ʊ o	-0.243524
-0.983509	ʊ r	-0.089122
-1.418363	ʊ s	0.000000
-0.991817	ʊ t	-0.156007
-0.434354	ʊː </s>	0.000000
-1.085391	ʌ </s>	0.000000
-1.134142	ʌ _	-0.053525
-1.502082	ʌ dʒ	-0.243524
-1.209558	ʌ m	-0.081804
-1.176784	ʌ n	-0.081804
-1.241846	ʌ s	-0.067055
-1.427304	ʌ t	-0.243524
-0.468858	ʌː </s>	0.000000
-0.773622	ʌː _	-0.149201
-1.123012	ʎ </s>	0.000000
-0.980810	ʎ _	-0.255882
-0.933699	ʎ a	-0.407934
-1.247704	ʎ e	-0.219388
-0.878319	ʎ i	-0.326830
-1.686321	ʎ iː	-0.137491
-1.376195	ʎ o	-0.179780
-1.755883	ʎ u	-0.243524
-0.876829	ʎ ə	-0.524372
-0.996206	ʎ ɛ	-0.418152
-0.939655	ʎː a	0.000000
-0.930474	ʎː i	0.000000
-0.865815	ʎː ə	-0.261440
-1.180634	ʎː ɛ	-0.243524
-1.471058	ʒ </s>	0.000000
-1.037827	ʒ _	-0.032235
-0.903452	ʒ a	-0.204941
-1.631152	ʒ b	-0.104912
-1.535925	ʒ e	-0.270683
-1.046555	ʒ i	-0.201384
-1.054179	ʒ u	-0.326021
-1.360807	ʒ uː	-0.194699
-0.838927	ʒ ə	-0.376074
-1.159216	ʒ ɛ	-0.089122
-1.514284	ʒ ɪ	-0.285440

\3-grams:
-0.373540	<s> a _	-0.896329
-2.586289	<s> a b	-0.227024
-2.214206	<s> a d	-0.263775
-2.170760	<s> a e	-0.373636
-1.340990	<s> a i	-0.636878
-1.259290	<s> a j	-0.852756
-2.316880	<s> a k	-0.227024
-0.913475	<s> a l	-1.083423
-2.002311	<s> a lː	-0.354315
-0.683568	<s> a n	-0.948234
-2.501630	<s> a nː	0.000000
-1.931822	<s> a p	-0.195093
-2.535145	<s> a pː	-0.137514
-1.816248	<s> a r	-0.283699
-2.551032	<s> a s	0.000000
-1.652616	<s> a t	-0.498575
-2.549427	<s> a u	-0.227024
-1.826111	<s> a v	-0.244675
-1.881319	<s> a w	-0.292814
-2.403714	<s> a ŋ	-0.137514
-2.441739	<s> a ɲ	-0.227024
-0.821916	<s> aː </s>	0.000000
-0.100851	<s> aː _	-0.261514
-0.707646	<s> b a	-0.179967
-1.273219	<s> b e	-0.227024
-0.551199	<s> b i	-0.390989
-1.491847	<s> b o	0.000000
-0.964491	<s> b r	-0.357073
-1.218985	<s> b u	-0.098843
-1.036961	<s> b ɛ	-0.121274
-1.531014	<s> b ɪ	0.000000
-1.727121	<s> b ʊ	0.000000
-1.808462	<s> d _	-0.150195
-1.036530	<s> d a	-0.627317
-2.203351	<s> d e	0.000000
-0.795377	<s> d i	-0.483362
-0.990756	<s> d o	-0.670419
-1.503569	<s> d u	-0.069580
-2.372169	<s> d ɔ	0.000000
-0.315130	<s> d ə	-1.167965
-1.584681	<s> d ɛ	-0.126620
-1.213390	<s> d ɪ	-0.326158
-0.790253	<s> dʒ _	-0.723577
-1.531372	<s> dʒ a	-0.170795
-1.369157	<s> dʒ e	-0.278844
-0.633860	<s> dʒ i	-0.913961
-1.208089	<s> dʒ o	-0.471825
-1.810957	<s> dʒ u	-0.197545
-0.374770	<s> dʒ ə	-1.471016
-2.021806	<s> dʒ ɛ	-0.227024
-1.802673	<s> e </s>	0.000000
-0.033456	<s> e _	-1.172752
-2.657253	<s> e a	-0.290126
-2.502146	<s> e j	-0.137514
-2.690615	<s> e kː	-0.137514
-1.485779	<s> e t	-0.768320
-2.404282	<s> e v	-0.197545
-0.450392	<s> eː </s>	0.000000
-0.267210	<s> eː _	-0.228787
-0.262808	<s> f a	-0.547578
-1.773346	<s> f e	0.000000
-1.130230	<s> f i	-0.297365
-0.801428	<s> f o	-0.729979
-1.056376	<s> f r	-0.492618
-1.696545	<s> f u	0.000000
-2.004907	<s> f ɔ	-0.227024
-1.452810	<s> f ə	-0.197545
-0.078733	<s> fp _	-0.063337
-2.386928	<s> i </s>	0.000000
-0.190211	<s> i _	-0.986927
-2.369004	<s> i a	-0.137514
-0.743631	<s> i k	-1.524812
-2.319003	<s> i kː	-0.197545
-1.595931	<s> i l	-0.470546
-2.301203	<s> i lː	-0.415065
-2.626862	<s> i m	-0.227024
-1.648053	<s> i n	-0.232307
-1.950999	<s> i s	-0.296323
-2.390169	<s> i t	-0.290126
-1.973846	<s> i z	-0.658103
-2.319968	<s> i ɔ	-0.415065
-1.276908	<s> i ʎ	-0.694644
-1.743354	<s> j _	0.000000
-0.349099	<s> j a	-1.258243
-0.392269	<s> j o	-0.802758
-1.639275	<s> j u	0.000000
-1.942109	<s> j ɔ	-0.227024
-1.689270	<s> j ə	-0.227024
-1.461458	<s> j ɛ	-0.098843
-1.184352	<s> k _	-0.585016
-0.622231	<s> k a	-0.564054
-0.977896	<s> k e	-0.874742
-0.686390	<s> k i	-1.060635
-1.366759	<s> k o	-0.360318
-2.048213	<s> k r	-0.077193
-0.892868	<s> k u	-0.585074
-0.997478	<s> k w	-0.817637
-1.126851	<s> k ə	-0.681674
-1.922720	<s> k ɛ	-0.229377
-2.544173	<s> k ɪ	-0.227024
-1.233343	<s> l _	-0.855606
-0.428916	<s> l a	-1.612562
-3.019301	<s> l aː	0.000000
-1.880425	<s> l e	-0.458555
-2.229448	<s> l i	-0.087636
-1.026537	<s> l o	-1.267849
-0.406040	<s> l u	-1.923442
-3.102427	<s> l uː	-0.227024
-2.815388	<s> l ɔ	-0.137514
-1.290351	<s> l ə	-1.427994
-2.711155	<s> l ɛ	-0.290126
-2.865085	<s> l ɪ	0.000000
-1.368984	<s> m _	-0.373636
-0.236805	<s> m a	-0.908761
-1.358439	<s> m e	-0.542943
-1.299532	<s> m i	-0.229040
-1.478570	<s> m o	-0.203283
-0.996320	<s> m u	-0.719034
-2.160224	<s> m w	-0.290126
-1.149018	<s> m ə	-0.595485
-1.520905	<s> m ɛ	-0.343979
-2.077867	<s> m ɪ	-0.137514
-0.853499	<s> n _	-0.679054
-0.531257	<s> n a	-0.811666
-1.693131	<s> n d	-0.294455
-1.987250	<s> n e	-0.290126
-2.126061	<s> n f	-0.227024
-1.622399	<s> n i	-0.229377
-1.830571	<s> n j	-0.197545
-0.598274	<s> n o	-0.886046
-2.166231	<s> n oː	-0.137514
-0.824388	<s> n u	-0.643986
-1.939507	<s> n ɔ	-0.098843
-1.900374	<s> n ə	-0.290126
-2.150872	<s> n ɛ	0.000000
-2.101445	<s> n ɡ	-0.290126
-0.078838	<s> o _	-0.641256
-2.184792	<s> o h	-0.227024
-1.132393	<s> o k	-0.674666
-1.462032	<s> o r	-0.227024
-0.214934	<s> oː _	-0.150195
-2.247735	<s> p _	0.000000
-0.677625	<s> p a	-0.635253
-2.587540	<s> p aː	0.000000
-2.250465	<s> p e	-0.290126
-1.899850	<s> p i	-0.063337
-2.353910	<s> p l	0.000000
-0.499834	<s> p o	-1.279732
-1.118440	<s> p r	-0.536671
-1.202317	<s> p u	-0.503572
-2.021988	<s> p ɔ	0.000000
-0.664169	<s> p ə	-0.927795
-1.267603	<s> p ɛ	-0.692395
-1.955459	<s> p ɪ	-0.063337
-1.100557	<s> r _	-0.227024
-1.078770	<s> r a	0.000000
-1.023598	<s> r e	-0.137514
-1.031026	<s> r o	0.000000
-0.734569	<s> r u	0.000000
-0.805926	<s> r ə	0.000000
-1.243105	<s> s _	-0.417443
-0.907375	<s> s a	-1.028562
-1.531839	<s> s e	-0.636878
-1.338341	<s> s i	-0.681674
-2.347550	<s> s k	-0.197545
-1.603771	<s> s o	-0.233607
-1.268644	<s> s t	-0.558216
-0.945225	<s> s u	-0.888580
-2.734693	<s> s ɔ	0.000000
-0.916273	<s> s ə	-1.009750
-0.394264	<s> s ɛ	-1.269257
-1.915570	<s> s ɪ	-0.203283
-0.984038	<s> t _	-0.804710
-0.884203	<s> t a	-0.446625
-1.643549	<s> t e	-0.229377
-1.420639	<s> t i	-0.428999
-0.758623	<s> t o	-0.636878
-0.961471	<s> t r	-0.485616
-1.570967	<s> t s	-0.440583
-0.620756	<s> t u	-0.874036
-2.085769	<s> t ɔ	0.000000
-1.087713	<s> t ə	-0.896515
-1.871893	<s> t ɛ	-0.227024
-1.799497	<s> t ɪ	-0.511975
-1.974481	<s> t ʊ	-0.415065
-0.651095	<s> tʃ a	-0.180333
-0.534932	<s> tʃ i	-0.142000
-0.759337	<s> tʃ u	-0.324623
-1.221486	<s> tʃ ə	-0.137514
-1.129542	<s> tʃ ɛ	-0.098843
-1.359780	<s> tʃ ɪ	-0.137514
-0.427110	<s> u _	-0.471177
-2.014463	<s> u m	0.000000
-0.253326	<s> u n	-1.292826
-0.575515	<s> v a	-0.218121
-1.300519	<s> v e	0.000000
-0.705244	<s> v i	-0.138788
-0.966194	<s> v u	-0.373636
-1.299392	<s> v ə	0.000000
-0.721101	<s> v ɛ	-0.263187
-1.532655	<s> v ɪ	-0.227024
-0.268612	<s> w a	-0.297365
-1.065010	<s> w i	0.000000
-0.968221	<s> w o	0.000000
-0.431787	<s> z a	0.000000
-0.530765	<s> ə _	-0.170605
-0.316346	<s> ə n	-0.511975
-1.379128	<s> ɛ </s>	0.000000
-0.209928	<s> ɛ _	-0.622619
-2.012683	<s> ɛ d	-0.227024
-2.085717	<s> ɛ h	-0.227024
-1.723047	<s> ɛ n	0.000000
-1.959627	<s> ɛ nː	-0.227024
-1.567250	<s> ɛ r	0.000000
-1.325659	<s> ɛ s	-0.188220
-0.833386	<s> ɛ t	-0.690766
-1.826803	<s> ɛ v	0.000000
-0.421476	<s> ɛː </s>	0.000000
-0.706694	<s> ɡ a	0.000000
-0.529228	<s> ɡ r	-0.197545
-0.877736	<s> ɡ w	-0.227024
-0.294847	<s> ɣ i	0.000000
-1.515448	<s> ɪ _	0.000000
-1.422026	<s> ɪ l	-0.290126
-1.483026	<s> ɪ m	-0.137514
-0.105387	<s> ɪ n	-0.619018
-1.246048	<s> ʃ _	0.000000
-1.089308	<s> ʃ a	-0.137514
-1.129955	<s> ʃ i	0.000000
-0.428718	<s> ʃ k	-0.636878
-0.940823	<s> ʃ p	-0.227024
-1.150512	<s> ʃ ə	0.000000
-0.136190	<s> ʊː </s>	0.000000
-0.284180	<s> ʌ _	0.000000
-0.501341	<s> ʌː </s>	0.000000
-0.186087	<s> ʌː _	-0.360253
-1.202321	<s> ʎ _	-0.227024
-0.963798	<s> ʎ e	-0.227024
-0.740251	<s> ʎ o	-0.591156
-0.331300	<s> ʎ ɛ	-0.709428
-1.272804	_ a </s>	0.000000
-0.995758	_ a _	-0.809529
-1.539004	_ a b	-0.401386
-2.169915	_ a bː	-0.039371
-1.618684	_ a d	-0.151513
-2.051340	_ a dʒ	0.000000
-1.608579	_ a e	-0.606198
-2.384643	_ a f	0.000000
-1.320581	_ a i	-0.571784
-1.304800	_ a j	-0.496328
-1.382221	_ a k	-0.651530
-2.245703	_ a kː	-0.197545
-1.255289	_ a l	-0.484011
-1.736414	_ a lː	-0.274097
-1.516668	_ a m	-0.282345
-1.129883	_ a n	-0.753394
-1.638913	_ a nː	-0.274484
-1.536435	_ a p	-0.358025
-1.968479	_ a pː	-0.373636
-1.388384	_ a r	-0.453170
-1.695570	_ a rː	-0.431129
-1.609779	_ a s	-0.421114
-2.165400	_ a sː	-0.098843
-1.315406	_ a t	-0.518343
-1.789090	_ a tʃ	-0.332089
-1.533671	_ a tː	-0.450001
-1.654921	_ a u	-0.303729
-1.347521	_ a v	-0.578165
-1.466974	_ a w	-0.504618
-1.551792	_ a ŋ	-0.379374
-2.031792	_ a ɛ	-0.263775
-2.129827	_ a ɡ	-0.415065
-2.546237	_ a ɲ	-0.227024
-1.933119	_ a ʃ	-0.188220
-0.400905	_ aː </s>	0.000000
-0.879469	_ aː _	0.000000
-0.599489	_ aː t	-0.207151
-1.497329	_ b _	0.000000
-0.994579	_ b a	-0.451951
-2.007066	_ b aː	0.000000
-1.093475	_ b e	-0.369756
-2.309120	_ b eː	0.000000
-0.993691	_ b i	-0.375094
-1.528895	_ b j	-0.077193
-1.127708	_ b l	-0.336713
-1.160942	_ b o	-0.216050
-2.210526	_ b oː	-0.184866
-1.003800	_ b r	-0.364454
-2.078218	_ b rː	0.000000
-0.994757	_ b u	-0.269507
-1.850658	_ b ɔ	-0.077193
-1.172790	_ b ə	-0.207810
-1.037345	_ b ɛ	-0.255110
-1.354787	_ b ɪ	-0.140870
-2.254526	_ b ʊ	0.000000
-1.681153	_ b ʌ	-0.098843
-0.712777	_ bː u	-0.082670
-1.911862	_ d </s>	0.000000
-0.992733	_ d _	-0.424972
-1.008323	_ d a	-0.423235
-1.268846	_ d e	-0.279344
-0.940275	_ d i	-0.503669
-2.067402	_ d j	-0.077193
-0.983308	_ d o	-0.480987
-1.427069	_ d r	-0.214434
-1.142373	_ d u	-0.347929
-1.821427	_ d ɔ	-0.415065
-0.734334	_ d ə	-0.800204
-1.078715	_ d ɛ	-0.336982
-1.019329	_ d ɪ	-0.402519
-1.166184	_ dz e	0.000000
-1.150913	_ dz i	0.000000
-0.566088	_ dz o	-0.098843
-0.847965	_ dz u	0.000000
-0.996146	_ dʒ _	-0.332172
-1.055399	_ dʒ a	-0.367489
-1.062224	_ dʒ e	-0.364508
-0.854354	_ dʒ i	-0.537832
-1.019995	_ dʒ o	-0.390313
-2.090525	_ dʒ oː	-0.227024
-0.986528	_ dʒ u	-0.379728
-1.684988	_ dʒ ɔ	-0.197545
-0.737900	_ dʒ ə	-0.682943
-1.169449	_ dʒ ɛ	-0.327972
-1.187262	_ dʒ ɪ	-0.252883
-0.451236	_ dː o	0.000000
-0.756921	_ e </s>	0.000000
-0.485179	_ e _	-0.814767
-1.653815	_ e j	-0.212512
-1.523077	_ e l	-0.415065
-1.931314	_ e m	0.000000
-1.627085	_ e n	-0.212512
-1.536544	_ e r	-0.098843
-1.208194	_ e s	-0.296080
-0.838258	_ e t	-0.737284
-1.077867	_ e v	-0.408398
-1.912566	_ e z	0.000000
-0.520219	_ eː </s>	0.000000
-0.877261	_ eː j	0.000000
-0.838003	_ eː t	0.000000
-1.711114	_ f _	-0.227024
-0.742984	_ f a	-0.602141
-1.030884	_ f e	-0.323971
-2.031525	_ f eː	-0.212512
-0.955571	_ f i	-0.322002
-1.473443	_ f j	-0.228787
-0.909467	_ f o	-0.499251
-0.947051	_ f r	-0.499676
-1.383655	_ f u	-0.210902
-1.632257	_ f w	-0.324099
-1.964988	_ f ɔ	-0.227024
-1.029284	_ f ə	-0.272147
-1.158594	_ f ɛ	-0.250755
-1.515307	_ f ɪ	-0.123465
-0.518449	_ fp </s>	0.000000
-0.254522	_ fp _	-0.137514
-1.194413	_ i </s>	0.000000
-0.800849	_ i _	-0.869021
-1.512349	_ i a	-0.370380
-2.041164	_ i d	0.000000
-2.005782	_ i e	-0.137514
-1.412834	_ i j	-0.366677
-1.027596	_ i k	-0.938582
-1.343096	_ i kː	-0.620185
-1.097338	_ i l	-0.614636
-1.460311	_ i lː	-0.636878
-1.565855	_ i m	-0.320237
-1.105255	_ i n	-0.487950
-1.468489	_ i o	-0.431129
-2.055338	_ i r	0.000000
-1.646386	_ i s	-0.188220
-1.246193	_ i t	-0.504313
-1.291880	_ i z	-0.553984
-1.911822	_ i ŋ	0.000000
-2.143982	_ i ɔ	-0.290126
-2.020267	_ i ə	0.000000
-2.482671	_ i ɣ	-0.082670
-1.091510	_ i ʎ	-0.540244
-0.390175	_ iː </s>	0.000000
-1.183459	_ iː j	-0.184866
-1.149853	_ j _	-0.373636
-0.562507	_ j a	-0.580146
-1.547718	_ j e	0.000000
-1.438086	_ j i	-0.098843
-0.549029	_ j o	-0.585016
-0.996802	_ j u	-0.241913
-1.141495	_ j ɔ	-0.373636
-1.342083	_ j ə	-0.137514
-1.443162	_ j ɛ	-0.137514
-1.583214	_ k </s>	0.000000
-0.970860	_ k _	-0.587308
-0.945731	_ k a	-0.567585
-1.937810	_ k aː	-0.098843
-1.009184	_ k e	-0.576967
-2.304217	_ k eː	-0.082670
-0.964494	_ k i	-0.584712
-1.518574	_ k j	-0.317226
-1.968218	_ k l	0.000000
-1.125325	_ k o	-0.437883
-1.348131	_ k r	-0.316560
-1.097549	_ k u	-0.423837
-1.146029	_ k w	-0.517162
-1.620115	_ k ɔ	-0.121630
-0.980927	_ k ə	-0.481091
-1.364089	_ k ɛ	-0.360714
-1.760787	_ k ɪ	-0.223223
-2.151977	_ k ʊ	-0.039371
-2.151977	_ k ʌ	-0.098843
-1.479178	_ l </s>	0.000000
-0.951070	_ l _	-0.497867
-0.792371	_ l a	-0.645493
-1.245305	_ l e	-0.317069
-1.915278	_ l eː	-0.227024
-1.144914	_ l i	-0.353067
-2.100607	_ l iː	-0.148877
-1.702126	_ l j	-0.320237
-0.927214	_ l o	-0.700373
-2.297042	_ l oː	-0.227024
-0.817952	_ l u	-0.638175
-2.316952	_ l uː	-0.137514
-1.728915	_ l ɔ	-0.222732
-0.909862	_ l ə	-0.616771
-1.454356	_ l ɛ	-0.196789
-1.408437	_ l ɪ	-0.201177
-1.611725	_ m </s>	0.000000
-1.130155	_ m _	-0.262789
-0.785005	_ m a	-0.582351
-2.059800	_ m aː	-0.125668
-1.331624	_ m b	-0.263187
-1.044325	_ m e	-0.416050
-1.821425	_ m eː	-0.197545
-2.010613	_ m f	-0.082670
-1.236177	_ m i	-0.292939
-2.121596	_ m iː	-0.137514
-1.976737	_ m j	-0.137514
-1.207008	_ m o	-0.316000
-1.601280	_ m p	-0.150195
-1.126961	_ m u	-0.353146
-2.459057	_ m uː	0.000000
-1.330418	_ m w	-0.367090
-1.934135	_ m ɔ	-0.098843
-1.131238	_ m ə	-0.396993
-1.127605	_ m ɛ	-0.442507
-1.251008	_ m ɪ	-0.288788
-1.810745	_ m ʊ	-0.294455
-1.670838	_ m ʌ	-0.373636
-0.811479	_ mː _	0.000000
-0.575604	_ mː a	0.000000
-1.516746	_ n </s>	0.000000
-0.933627	_ n _	-0.329594
-0.971664	_ n a	-0.482288
-1.367080	_ n d	-0.343122
-1.713434	_ n dʒ	-0.227024
-1.521663	_ n e	-0.228016
-2.525748	_ n eː	0.000000
-1.353765	_ n f	-0.767247
-1.243398	_ n i	-0.271308
-1.448483	_ n j	-0.212034
-0.930082	_ n o	-0.576537
-1.256965	_ n t	-0.575190
-0.953913	_ n u	-0.548447
-2.069991	_ n v	0.000000
-1.457243	_ n ɔ	-0.422385
-1.069817	_ n ə	-0.536540
-1.635678	_ n ɛ	-0.126620
-1.509164	_ n ɡ	-0.296323
-2.054663	_ n ɪ	0.000000
-0.395629	_ nː a	-0.227024
-0.843558	_ o </s>	0.000000
-0.450214	_ o _	-0.571631
-1.807939	_ o j	0.000000
-1.553363	_ o k	0.000000
-1.371041	_ o m	-0.274160
-1.440708	_ o n	0.000000
-1.976689	_ o p	-0.082670
-0.843972	_ o r	-0.273700
-1.225886	_ o t	-0.150195
-1.654008	_ o z	0.000000
-0.755907	_ oː r	-0.184866
-0.578906	_ oː ə	0.000000
-1.853840	_ p </s>	0.000000
-1.291575	_ p _	-0.201933
-0.844274	_ p a	-0.533502
-2.433778	_ p aː	0.000000
-1.477500	_ p e	-0.233289
-2.227010	_ p eː	-0.114739
-1.198025	_ p i	-0.324683
-2.498177	_ p iː	0.000000
-1.481494	_ p j	-0.507518
-1.857041	_ p l	-0.148877
-0.949940	_ p o	-0.485887
-1.079637	_ p r	-0.595094
-0.992702	_ p u	-0.477916
-2.092317	_ p w	-0.148877
-1.381570	_ p ɔ	-0.218121
-0.873906	_ p ə	-0.579727
-1.167711	_ p ɛ	-0.361722
-1.229128	_ p ɪ	-0.337540
-2.082648	_ p ʊ	-0.098843
-0.473257	_ pː a	-0.114739
-0.966709	_ pː eː	0.000000
-1.377085	_ r </s>	0.000000
-1.460376	_ r _	-0.098843
-1.234727	_ r a	-0.159822
-1.202627	_ r e	-0.228604
-0.876610	_ r i	-0.312238
-0.862777	_ r o	-0.281065
-1.927452	_ r oː	0.000000
-0.862378	_ r u	-0.296616
-0.748224	_ r ə	-0.349454
-1.276771	_ r ɛ	-0.129808
-1.333299	_ r ɪ	-0.184599
-1.960715	_ r ʌ	0.000000
-1.566858	_ s </s>	0.000000
-1.155585	_ s _	-0.393963
-0.917074	_ s a	-0.489697
-2.306312	_ s aː	0.000000
-1.237273	_ s e	-0.397737
-2.355487	_ s eː	0.000000
-1.080897	_ s i	-0.513728
-1.688584	_ s j	-0.063337
-1.506294	_ s k	-0.330306
-2.150894	_ s n	-0.137514
-1.254648	_ s o	-0.394283
-1.438499	_ s p	-0.164857
-2.141401	_ s r	-0.197545
-1.083238	_ s t	-0.607074
-0.996255	_ s u	-0.493804
-1.834274	_ s v	-0.244918
-2.063866	_ s ɔ	-0.053330
-1.006063	_ s ə	-0.577558
-1.000148	_ s ɛ	-0.619172
-1.280860	_ s ɪ	-0.391485
-1.502632	_ t </s>	0.000000
-1.219117	_ t _	-0.471635
-1.036782	_ t a	-0.461030
-1.291930	_ t e	-0.329445
-2.201983	_ t eː	0.000000
-1.142299	_ t i	-0.344769
-2.128556	_ t j	-0.227024
-0.985048	_ t o	-0.397145
-2.226748	_ t oː	-0.227024
-1.050811	_ t r	-0.597127
-1.244646	_ t s	-0.324377
-0.935132	_ t u	-0.587061
-2.203227	_ t uː	0.000000
-1.824696	_ t w	-0.415065
-1.893062	_ t ɔ	-0.077193
-0.990140	_ t ə	-0.527279
-1.151885	_ t ɛ	-0.306064
-1.398560	_ t ɪ	-0.426787
-1.496271	_ t ʊ	-0.658103
-1.484219	_ tʃ _	0.000000
-0.803628	_ tʃ a	-0.421338
-0.963362	_ tʃ e	-0.217007
-0.863008	_ tʃ i	-0.292558
-2.077324	_ tʃ iː	-0.184866
-1.174314	_ tʃ o	-0.354315
-0.938403	_ tʃ u	-0.232775
-1.352965	_ tʃ w	-0.511975
-1.261725	_ tʃ ə	-0.292826
-0.917625	_ tʃ ɛ	-0.384930
-1.114898	_ tʃ ɪ	-0.277307
-1.900159	_ tʃ ʊ	-0.227024
-1.900159	_ tʃ ʌ	-0.227024
-0.512953	_ tʃː w	-0.227024
-1.146233	_ u </s>	0.000000
-0.622576	_ u _	-0.674680
-1.750774	_ u a	-0.098843
-1.999646	_ u f	-0.227024
-1.688220	_ u k	-0.290126
-1.309290	_ u l	-0.101734
-1.263209	_ u m	-0.171138
-0.647296	_ u n	-0.626408
-1.276130	_ u o	-0.409903
-1.606258	_ u r	0.000000
-1.525594	_ u s	-0.207151
-1.300181	_ u z	-0.114997
-1.446444	_ u ŋ	-0.511975
-2.022316	_ u ɛ	-0.082670
-1.953555	_ u ɡ	-0.227024
-0.681885	_ v a	-0.408326
-2.132786	_ v aː	-0.082670
-1.235955	_ v e	-0.186996
-0.860707	_ v i	-0.334683
-1.339263	_ v j	-0.121274
-1.528776	_ v o	-0.162696
-1.775568	_ v r	-0.184866
-0.958880	_ v u	-0.340087
-1.957815	_ v w	-0.227024
-1.924392	_ v ɔ	-0.227024
-0.933665	_ v ə	-0.358913
-0.879092	_ v ɛ	-0.337057
-1.389101	_ v ɪ	-0.228787
-1.782657	_ v ʊ	0.000000
-1.289022	_ w _	-0.137514
-0.673309	_ w a	-0.211618
-1.392866	_ w e	-0.137514
-0.872359	_ w i	-0.295544
-1.159911	_ w o	-0.114739
-0.884407	_ w u	-0.228434
-1.276182	_ w ə	0.000000
-1.149149	_ w ɛ	-0.114739
-1.013747	_ w ʊ	-0.325175
-1.658420	_ w ʌ	-0.137514
-0.817165	_ z _	-0.077193
-0.975954	_ z a	-0.114997
-0.578789	_ z i	-0.267848
-1.390095	_ z o	-0.039371
-0.771193	_ z u	-0.170605
-0.937450	_ z ə	-0.077193
-0.453776	_ ɔ r	0.000000
-1.095971	_ ə </s>	0.000000
-0.427547	_ ə _	-0.393544
-1.079767	_ ə m	-0.063337
-0.620218	_ ə n	-0.540244
-1.363792	_ ə r	0.000000
-1.438725	_ ə v	-0.137514
-1.520215	_ ɛ </s>	0.000000
-0.637053	_ ɛ _	-0.341349
-1.180168	_ ɛ l	-0.180333
-1.525398	_ ɛ m	-0.098843
-1.313317	_ ɛ n	-0.227024
-1.939032	_ ɛ nː	-0.184866
-1.300821	_ ɛ r	-0.093385
-0.935513	_ ɛ s	-0.417694
-0.694468	_ ɛ t	-0.736604
-1.235939	_ ɛ tː	-0.296323
-1.147020	_ ɛ v	-0.325697
-1.908022	_ ɛ z	-0.227024
-1.004559	_ ɡ _	-0.087636
-0.796804	_ ɡ a	-0.192087
-1.520497	_ ɡ j	0.000000
-0.895297	_ ɡ o	-0.087636
-0.972384	_ ɡ r	-0.298381
-0.936791	_ ɡ u	-0.173163
-0.815769	_ ɡ w	-0.420652
-1.060740	_ ɡ ə	-0.318216
-1.323036	_ ɡ ɪ	-0.098843
-0.688930	_ ɣ i	-0.053330
-0.676995	_ ɣ o	0.000000
-0.934310	_ ɣ w	0.000000
-0.885457	_ ɪ _	-0.112162
-0.736944	_ ɪ m	-0.498575
-0.354380	_ ɪ n	-0.750934
-1.478545	_ ɪ s	-0.137514
-1.187136	_ ɪ t	-0.511975
-1.510543	_ ɪ ŋ	-0.137514
-0.317534	_ ɲ a	-0.292826
-0.675208	_ ɲ o	-0.227024
-1.038518	_ ʃ a	-0.150195
-1.803991	_ ʃ b	-0.227024
-1.405933	_ ʃ e	-0.053703
-1.723927	_ ʃ f	0.000000
-0.859187	_ ʃ i	-0.249623
-0.916034	_ ʃ k	-0.409178
-1.428774	_ ʃ o	-0.098843
-0.936585	_ ʃ p	-0.368654
-1.380587	_ ʃ t	-0.173396
-1.167558	_ ʃ u	-0.123140
-1.672715	_ ʃ v	-0.194979
-1.236700	_ ʃ ə	-0.187800
-1.039636	_ ʃ ɛ	-0.208930
-1.169268	_ ʃ ɪ	-0.145396
-0.511704	_ ʊ _	0.000000
-0.572147	_ ʊ n	0.000000
-0.739264	_ ʌ </s>	0.000000
-0.516911	_ ʌ _	-0.063337
-1.096328	_ ʌ m	-0.227024
-0.752791	_ ʌ n	-0.197545
-0.228370	_ ʌː </s>	0.000000
-0.568800	_ ʌː _	-0.098843
-0.693806	_ ʎ _	-0.158973
-1.215027	_ ʎ a	-0.227024
-1.375277	_ ʎ e	-0.201241
-1.099420	_ ʎ i	-0.290126
-0.540512	_ ʎ o	-0.645009
-1.098641	_ ʎ ə	-0.290126
-0.827926	_ ʎ ɛ	-0.279940
-0.712983	_ ʒ a	0.000000
-1.214798	_ ʒ b	-0.227024
-1.194070	_ ʒ e	-0.227024
-0.755933	_ ʒ i	-0.197545
-0.819809	_ ʒ ə	-0.290126
-1.188849	_ ʒ ɪ	-0.227024
-1.301221	a _ a	-0.547493
-2.699514	a _ aː	-0.184866
-1.391686	a _ b	-0.571171
-2.568344	a _ bː	-0.137514
-1.262717	a _ d	-0.806839
-2.481798	a _ dz	-0.098843
-1.424364	a _ dʒ	-0.551470
-1.372069	a _ e	-0.735811
-1.429426	a _ f	-0.639532
-1.329356	a _ i	-0.563060
-1.606189	a _ j	-0.547690
-1.266134	a _ k	-0.703718
-1.245672	a _ l	-0.776342
-1.362793	a _ m	-0.593697
-2.685080	a _ mː	0.000000
-1.340515	a _ n	-0.610644
-1.562477	a _ o	-0.346886
-2.691847	a _ oː	-0.227024
-1.310311	a _ p	-0.752210
-2.543409	a _ pː	-0.137514
-1.451724	a _ r	-0.440333
-1.307449	a _ s	-0.725337
-1.401081	a _ t	-0.621629
-1.615939	a _ tʃ	-0.389707
-1.441323	a _ u	-0.511060
-1.522133	a _ v	-0.541117
-2.091636	a _ w	-0.208930
-2.033517	a _ z	-0.223682
-1.835434	a _ ə	-0.298029
-1.733175	a _ ɛ	-0.263741
-1.655116	a _ ɡ	-0.309795
-2.089702	a _ ɣ	-0.207151
-1.627613	a _ ɪ	-0.605091
-2.316151	a _ ɲ	-0.263775
-1.568876	a _ ʃ	-0.389475
-1.942703	a _ ʎ	-0.145396
-2.431580	a _ ʒ	-0.137514
-1.141541	a b a	-0.064829
-1.234575	a b i	-0.114739
-0.820183	a b o	-0.114997
-1.274692	a b r	-0.155840
-0.737058	a b u	-0.143970
-0.866119	a b ə	-0.173396
-1.018921	a b ɛ	-0.171138
-1.310708	a b ɪ	-0.212512
-0.606252	a bː r	-0.053330
-0.701741	a bː ə	-0.227024
-1.109232	a d </s>	0.000000
-0.733215	a d _	-0.242084
-0.972313	a d a	-0.138788
-1.219219	a d e	-0.031206
-1.310576	a d i	-0.155840
-1.742296	a d j	0.000000
-1.335181	a d o	-0.148877
-1.760669	a d oː	0.000000
-1.404905	a d r	-0.145748
-1.139083	a d u	-0.155785
-0.834647	a d ə	-0.549727
-0.960188	a d ɛ	-0.158222
-0.858850	a dʒ </s>	0.000000
-1.094384	a dʒ _	0.000000
-1.246248	a dʒ e	0.000000
-0.781186	a dʒ i	-0.207151
-1.212834	a dʒ o	0.000000
-1.210955	a dʒ u	0.000000
-0.804689	a dʒ ə	-0.182676
-1.153945	a dʒ ɛ	-0.184866
-1.112625	a dʒ ɪ	0.000000
-0.821687	a dː e	-0.184866
-0.741413	a dː r	-0.184866
-0.702351	a dː ə	-0.184866
-1.248874	a e d	-0.184866
-1.063051	a e n	-0.184866
-1.118932	a e r	-0.082670
-1.123483	a e s	0.000000
-0.747255	a e t	-0.236874
-1.175321	a f </s>	0.000000
-1.056632	a f a	-0.082670
-1.154485	a f e	-0.212512
-1.000864	a f i	-0.114137
-1.205368	a f o	-0.082670
-0.944933	a f u	-0.053330
-0.827787	a f ə	-0.130769
-1.006114	a f ɛ	-0.137514
-0.744321	a fː e	-0.184866
-0.736280	a fː ə	-0.184866
-0.293538	a h </s>	0.000000
-0.887984	a i </s>	0.000000
-0.736645	a i _	-0.573713
-1.330962	a i a	-0.163421
-1.774169	a i d	-0.082670
-1.479962	a i e	0.000000
-1.020595	a i j	-0.413638
-1.098014	a i n	-0.213403
-1.672688	a i o	0.000000
-1.264737	a i r	-0.207151
-1.671691	a i s	-0.227024
-1.587707	a i t	-0.173883
-1.667776	a i u	-0.082670
-1.503387	a i z	-0.171138
-1.071408	a i ə	-0.658103
-1.839208	a i ɪ	-0.227024
-0.663801	a iː n	0.000000
-0.858641	a j </s>	0.000000
-0.572163	a j _	-0.239032
-1.169629	a j a	-0.208930
-1.694875	a j aː	0.000000
-1.732304	a j d	-0.082670
-1.389727	a j e	-0.137514
-1.168182	a j i	-0.155840
-1.248084	a j o	-0.227024
-1.537763	a j s	-0.114137
-1.946279	a j t	-0.184866
-1.129725	a j u	-0.078751
-1.079006	a j ə	-0.294455
-1.200166	a j ɛ	-0.171138
-0.994534	a k </s>	0.000000
-0.869280	a k _	-0.165317
-0.784703	a k a	-0.244675
-1.133981	a k e	-0.218258
-1.212801	a k i	-0.093385
-1.496708	a k j	0.000000
-2.030342	a k n	0.000000
-1.343438	a k o	-0.114739
-1.092493	a k u	-0.204455
-1.542471	a k w	-0.137514
-0.806440	a k ə	-0.255624
-1.491257	a k ɛ	-0.227024
-1.281895	a kː e	-0.184866
-0.992370	a kː i	-0.082670
-1.148738	a kː j	-0.053330
-0.985806	a kː u	-0.098843
-0.484607	a kː ə	-0.155785
-1.455473	a kː ɪ	-0.184866
-1.017310	a l </s>	0.000000
-0.826042	a l _	-0.408107
-1.159339	a l a	-0.266067
-2.062199	a l b	-0.093385
-1.828946	a l d	-0.098843
-1.038692	a l e	-0.446811
-0.931123	a l i	-0.232251
-1.241013	a l j	-0.199748
-1.955266	a l k	-0.160545
-1.258245	a l o	-0.214914
-1.645692	a l t	-0.093385
-1.216010	a l u	-0.185302
-2.282529	a l v	-0.184866
-2.295301	a l z	0.000000
-1.748889	a l ɔ	-0.212512
-0.933228	a l ə	-0.611403
-1.405856	a l ɛ	-0.129581
-1.817361	a l ɪ	-0.148877
-1.235099	a lː </s>	0.000000
-1.295014	a lː _	-0.082670
-1.186497	a lː a	-0.093385
-1.375389	a lː i	0.000000
-0.839710	a lː o	-0.125668
-0.674468	a lː u	-0.195988
-0.668875	a lː ə	-0.324623
-1.189319	a lː ɛ	0.000000
-1.110161	a m </s>	0.000000
-1.003171	a m _	-0.247656
-0.957231	a m a	-0.322205
-0.938627	a m b	-0.363598
-1.374055	a m e	-0.148877
-1.918357	a m f	-0.184866
-1.184605	a m i	-0.146564
-1.838241	a m iː	-0.082670
-1.181456	a m o	-0.158222
-1.335227	a m p	-0.193277
-1.168669	a m u	-0.263187
-1.740853	a m w	-0.205433
-1.981099	a m ɔ	-0.184866
-1.004427	a m ə	-0.180333
-1.169773	a m ɛ	-0.333869
-1.522330	a m ɪ	-0.205433
-1.086245	a mː </s>	0.000000
-1.223609	a mː _	-0.184866
-0.781664	a mː a	-0.173396
-1.021848	a mː i	-0.082670
-1.348040	a mː j	-0.184866
-1.096722	a mː o	0.000000
-1.027785	a mː u	-0.053330
-0.878352	a mː ə	-0.227024
-0.971065	a n </s>	0.000000
-0.903442	a n _	-0.686451
-1.220780	a n a	-0.238095
-2.136385	a n aː	0.000000
-0.927072	a n d	-0.674388
-1.568934	a n dʒ	-0.236246
-1.740635	a n e	-0.098843
-1.995874	a n f	-0.227024
-1.418468	a n i	-0.166794
-1.378707	a n j	-0.418706
-1.474133	a n k	-0.280734
-2.513667	a n m	-0.184866
-1.289679	a n o	-0.355590
-1.807495	a n s	0.000000
-0.954834	a n t	-0.542360
-1.697557	a n tʃ	-0.233819
-1.752227	a n u	-0.031206
-2.262387	a n v	-0.082670
-1.709600	a n z	-0.240421
-1.016362	a n ə	-0.639491
-1.783112	a n ɛ	-0.063337
-1.549034	a n ɡ	-0.263775
-2.112665	a n ʃ	-0.093385
-0.709260	a nː </s>	0.000000
-0.718388	a nː _	-0.142000
-1.232399	a nː a	-0.137514
-1.329886	a nː i	-0.137514
-1.041470	a nː o	-0.172529
-0.471174	a nː ə	-0.959133
-0.997933	a o </s>	0.000000
-0.628288	a o _	-0.053330
-0.816287	a o l	-0.082670
-1.149795	a p </s>	0.000000
-1.235485	a p _	-0.053703
-1.224853	a p a	-0.135818
-0.856198	a p e	-0.202864
-1.776068	a p eː	-0.227024
-1.165399	a p i	-0.112902
-1.547760	a p l	-0.082670
-0.942921	a p o	-0.183074
-1.073815	a p r	-0.118291
-1.167422	a p u	-0.090681
-1.588767	a p ɔ	-0.114137
-0.925255	a p ə	-0.225016
-1.083242	a p ɛ	-0.068090
-0.797642	a pː a	-0.234835
-0.839141	a pː e	-0.274160
-1.057506	a pː o	-0.082670
-1.079680	a pː u	0.000000
-0.665382	a pː ə	-0.172529
-1.046263	a r </s>	0.000000
-1.006155	a r _	-0.463669
-0.998017	a r a	-0.388919
-1.678784	a r b	-0.172529
-1.162636	a r d	-0.387596
-1.814196	a r dʒ	0.000000
-1.356311	a r e	-0.180625
-0.932473	a r i	-0.347083
-1.708370	a r k	-0.192513
-1.517136	a r l	-0.189345
-1.887272	a r m	-0.201471
-1.579369	a r o	-0.114739
-2.403242	a r p	-0.148063
-1.673885	a r s	-0.039371
-1.311769	a r t	-0.275284
-2.005310	a r tʃ	-0.098843
-1.423053	a r u	-0.200485
-2.157735	a r v	0.000000
-1.068985	a r ə	-0.532134
-1.103855	a r ɛ	-0.250641
-1.867295	a r ɪ	-0.082670
-2.186848	a r ʃ	0.000000
-1.108315	a rː </s>	0.000000
-1.270110	a rː e	-0.184866
-0.838709	a rː i	-0.227024
-1.107945	a rː o	-0.227024
-1.368233	a rː t	0.000000
-1.343974	a rː u	0.000000
-0.523842	a rː ə	-0.218258
-1.139354	a s </s>	0.000000
-0.714012	a s _	-0.235850
-1.084237	a s a	-0.186195
-1.337776	a s e	-0.053330
-1.074114	a s i	-0.137514
-1.530219	a s k	0.000000
-0.770756	a s t	-0.309553
-0.924843	a s ə	-0.161103
-1.103582	a s ɛ	-0.234315
-1.606289	a s ɪ	0.000000
-0.971291	a sː </s>	0.000000
-1.028829	a sː _	-0.098843
-0.766041	a sː a	-0.252624
-1.319777	a sː e	0.000000
-1.084826	a sː i	0.000000
-1.231913	a sː u	-0.227024
-0.622413	a sː ə	-0.173883
-1.276890	a sː ɛ	0.000000
-1.021943	a t </s>	0.000000
-0.878741	a t _	-0.491396
-0.991971	a t a	-0.266314
-2.272817	a t aː	-0.184866
-1.372468	a t e	-0.068090
-1.156090	a t i	-0.254793
-2.255630	a t j	0.000000
-1.175432	a t o	-0.208889
-1.153936	a t r	-0.261888
-1.067286	a t s	-0.456807
-2.388024	a t sː	-0.184866
-1.469378	a t u	-0.150195
-1.356752	a t z	-0.152475
-0.845160	a t ə	-0.593928
-1.268954	a t ɛ	-0.308442
-1.947568	a t ɪ	-0.137514
-0.949439	a tʃ </s>	0.000000
-0.834760	a tʃ _	-0.161576
-0.764302	a tʃ a	-0.086638
-1.092496	a tʃ e	-0.137514
-1.135197	a tʃ i	-0.227024
-1.267194	a tʃ o	-0.227024
-0.814198	a tʃ ə	-0.143970
-1.092130	a tʃ ɛ	-0.031206
-0.889529	a tː </s>	0.000000
-0.790743	a tː _	-0.228199
-1.423692	a tː a	-0.184866
-1.036554	a tː e	-0.409903
-1.299416	a tː i	-0.137514
-1.122060	a tː o	-0.227024
-1.838590	a tː r	-0.039371
-1.868785	a tː ɔ	-0.184866
-0.511134	a tː ə	-0.647394
-1.538939	a tː ɛ	0.000000
-0.887943	a u </s>	0.000000
-0.658934	a u _	-0.210760
-1.308939	a u l	-0.176235
-1.041440	a u r	-0.176235
-1.183472	a u s	-0.123140
-1.166541	a u t	-0.149609
-1.218160	a u w	-0.316534
-1.225422	a u z	-0.123140
-1.475219	a u ə	-0.261324
-1.941978	a u ʒ	0.000000
-1.200638	a v </s>	0.000000
-0.861112	a v _	-0.287138
-0.673876	a v a	-0.411832
-1.333069	a v e	-0.077193
-1.077675	a v i	-0.120736
-1.205686	a v o	-0.143970
-1.599329	a v r	-0.227024
-1.579474	a v u	-0.137514
-0.681133	a v ə	-0.667598
-1.110584	a v ɛ	-0.241875
-0.888475	a w </s>	0.000000
-0.608849	a w _	-0.214487
-1.002355	a w a	-0.194979
-1.582673	a w d	0.000000
-1.653722	a w dz	-0.137514
-1.327187	a w i	-0.227024
-1.860958	a w iː	-0.184866
-1.563208	a w l	-0.064829
-1.212637	a w o	-0.184866
-1.568431	a w t	-0.082670
-1.375082	a w u	-0.227024
-1.124209	a w ə	-0.218258
-1.622872	a w ɡ	-0.227024
-0.935827	a z </s>	0.000000
-0.854669	a z _	-0.145600
-1.064725	a z a	-0.148877
-0.783185	a z i	-0.053330
-1.535750	a z o	-0.184866
-1.148651	a z u	-0.227024
-0.620291	a z ə	-0.415065
-1.304531	a z ɛ	-0.082670
-0.473806	a zː ə	-0.137514
-0.643465	a ŋ </s>	0.000000
-0.517508	a ŋ _	-0.333558
-1.584325	a ŋ dʒ	-0.137514
-0.838340	a ŋ k	-0.272024
-0.931879	a ŋ ə	-0.466217
-1.008285	a ŋ ɡ	-0.268980
-0.159151	a ŋː ə	0.000000
-0.809216	a ɛ r	-0.184866
-0.536964	a ɛ t	-0.082670
-1.016405	a ɡ _	-0.082670
-0.843481	a ɡ a	-0.053330
-1.500117	a ɡ d	-0.184866
-0.935692	a ɡ o	-0.227024
-1.102118	a ɡ r	-0.184866
-0.896787	a ɡ u	-0.227024
-0.696253	a ɡ ə	-0.171138
-0.279682	a ɡː ə	-0.082670
-0.985762	a ɲ </s>	0.000000
-0.689518	a ɲ a	-0.137514
-0.971270	a ɲ i	-0.184866
-1.081427	a ɲ j	0.000000
-0.748319	a ɲ ə	-0.212512
-1.200212	a ʃ _	0.000000
-1.019941	a ʃ a	-0.123140
-1.529360	a ʃ b	-0.227024
-1.250755	a ʃ e	0.000000
-0.626974	a ʃ i	-0.147185
-1.761132	a ʃ iː	0.000000
-1.202981	a ʃ k	-0.130769
-1.269092	a ʃ p	-0.053330
-0.903019	a ʃ u	-0.077193
-1.185948	a ʃ ə	0.000000
-1.250037	a ʃ ɛ	-0.082670
-0.985140	a ʎ _	-0.137514
-0.717216	a ʎ a	-0.292826
-1.207240	a ʎ e	-0.137514
-0.939315	a ʎ i	-0.125668
-1.338062	a ʎ u	-0.227024
-0.549979	a ʎ ə	-0.511975
-1.224447	a ʎ ɛ	-0.082670
-0.909878	a ʒ _	-0.184866
-0.716740	a ʒ u	0.000000
-0.638026	a ʒ ə	0.000000
-0.991501	aː _ a	-0.150195
-1.004938	aː _ d	-0.415065
-1.519211	aː _ dʒ	0.000000
-1.282693	aː _ e	0.000000
-1.389086	aː _ i	-0.082670
-1.014175	aː _ k	-0.098843
-1.271407	aː _ l	-0.053330
-1.305215	aː _ p	0.000000
-1.364496	aː _ r	0.000000
-1.449550	aː _ s	-0.130769
-1.324532	aː _ u	0.000000
-1.519740	aː _ ɪ	-0.184866
-1.479610	aː _ ʌː	0.000000
-0.736025	aː d r	-0.184866
-0.333584	aː dʒ ɪ	-0.184866
-0.271785	aː l ə	-0.290126
-0.672004	aː m i	-0.184866
-0.560150	aː n </s>	0.000000
-0.433392	aː n d	-0.171138
-0.453964	aː r i	0.000000
-0.718978	aː r ə	-0.184866
-0.714737	aː t </s>	0.000000
-1.118845	aː t _	0.000000
-1.172374	aː t e	0.000000
-0.404550	aː t ə	-0.511975
-0.324510	aː v ə	-0.261324
-0.262993	aː ŋ </s>	0.000000
-1.026799	b _ a	0.000000
-0.883249	b _ i	0.000000
-1.058055	b _ k	0.000000
-0.905998	b _ s	-0.137514
-1.118694	b a </s>	0.000000
-1.001712	b a _	-0.108315
-1.707497	b a b	0.000000
-1.526250	b a d	-0.082670
-1.182302	b a i	-0.153008
-1.480258	b a j	-0.114739
-0.970376	b a l	-0.214991
-1.767170	b a lː	-0.184866
-1.607303	b a m	-0.184866
-1.381804	b a n	-0.139728
-1.326053	b a r	-0.188925
-1.603430	b a rː	-0.137514
-1.502645	b a s	-0.093385
-1.057341	b a t	-0.063337
-1.549032	b a tʃ	0.000000
-1.681886	b a tː	0.000000
-1.684982	b a w	-0.184866
-1.772151	b a z	0.000000
-1.456460	b a ŋ	-0.114739
-0.418437	b aː n	0.000000
-0.989678	b e </s>	0.000000
-0.692221	b e _	-0.090388
-1.559846	b e b	-0.184866
-1.368692	b e i	-0.184866
-1.051496	b e j	-0.205433
-0.929248	b e l	0.000000
-1.005685	b i _	-0.137514
-1.104024	b i a	-0.191266
-1.098206	b i j	-0.171138
-1.791475	b i kː	-0.184866
-1.370829	b i l	-0.039371
-1.288018	b i n	-0.069852
-1.510165	b i s	-0.053330
-1.119362	b i t	-0.125668
-1.051013	b i tʃ	-0.155785
-1.467885	b i u	-0.227024
-1.634750	b i z	0.000000
-1.414965	b i ɛ	-0.227024
-1.518484	b i ʃ	-0.218258
-0.810016	b j a	-0.082670
-0.696049	b j o	-0.082670
-1.133431	b l a	-0.082670
-0.897190	b l i	-0.082670
-1.121515	b l o	-0.114137
-0.934390	b l u	0.000000
-1.246145	b l ɔ	-0.184866
-0.781189	b l ɛ	-0.053330
-1.237277	b o </s>	0.000000
-1.089403	b o _	-0.100193
-1.386298	b o d	0.000000
-1.090692	b o l	-0.039371
-1.448361	b o lː	0.000000
-1.076625	b o n	-0.077193
-1.132573	b o r	-0.114137
-1.427090	b o s	-0.184866
-1.743783	b o sː	-0.184866
-1.108392	b o t	-0.137514
-1.320143	b o tː	-0.137514
-1.532515	b o v	-0.184866
-1.324913	b o w	-0.082670
-1.585861	b o ə	-0.184866
-0.581186	b oː </s>	0.000000
-1.071102	b r _	-0.093385
-0.716253	b r a	-0.252099
-1.226451	b r e	0.000000
-1.057781	b r i	-0.134803
-1.237680	b r o	-0.227024
-1.235943	b r u	-0.125668
-1.736628	b r v	0.000000
-1.601741	b r ɔ	-0.082670
-1.033976	b r ə	-0.114739
-0.945514	b r ɛ	-0.114513
-1.424421	b u </s>	0.000000
-1.004192	b u _	-0.086657
-1.773955	b u f	-0.184866
-1.888604	b u fː	-0.184866
-1.489877	b u k	-0.130769
-1.876084	b u kː	-0.082670
-1.031194	b u l	-0.025847
-1.313304	b u m	0.000000
-1.088208	b u n	-0.155785
-1.449264	b u nː	-0.114137
-1.256826	b u r	-0.082670
-1.067073	b u s	-0.182676
-1.505460	b u sː	0.000000
-1.282886	b u t	-0.064829
-1.555412	b u tʃ	-0.114137
-1.523967	b u ŋ	0.000000
-1.785114	b u ə	0.000000
-1.587627	b u ʃ	0.000000
-0.664760	b ɔ r	0.000000
-0.755352	b ə </s>	0.000000
-0.762180	b ə _	-0.078297
-1.398573	b ə d	0.000000
-0.757865	b ə l	-0.383242
-1.335077	b ə n	-0.184866
-0.960111	b ə r	-0.114997
-1.180743	b ə t	-0.098843
-1.067795	b ɛ _	-0.077193
-1.297389	b ɛ k	0.000000
-0.904960	b ɛ l	-0.209934
-1.103291	b ɛ lː	-0.125668
-1.248707	b ɛ n	-0.025847
-1.441556	b ɛ nː	-0.184866
-1.008796	b ɛ r	-0.039371
-0.966973	b ɛ t	-0.077193
-1.132631	b ɛ tː	0.000000
-1.548181	b ɪ b	-0.184866
-1.206881	b ɪ d	0.000000
-1.019424	b ɪ l	0.000000
-1.024374	b ɪ n	-0.184866
-1.036090	b ɪ t	-0.039371
-1.065480	b ɪ z	-0.093385
-1.172517	b ɪ ʃ	-0.227024
-0.559220	b ʌ s	-0.137514
-0.446147	bː e _	0.000000
-0.563777	bː r u	-0.227024
-0.558839	bː u n	-0.082670
-0.258128	bː ə _	0.000000
-0.938711	d _ a	-0.308894
-1.171532	d _ d	-0.255624
-1.536647	d _ dʒ	-0.137514
-1.470923	d _ e	-0.155785
-1.561103	d _ f	0.000000
-2.123370	d _ fp	-0.184866
-1.083800	d _ i	-0.278108
-1.569073	d _ j	-0.098843
-1.365712	d _ k	-0.180333
-1.095297	d _ l	-0.294255
-1.604448	d _ m	-0.077193
-1.485966	d _ n	-0.053330
-1.615345	d _ o	-0.077193
-1.497108	d _ p	-0.205433
-1.673458	d _ r	-0.227024
-1.352828	d _ s	-0.072668
-1.519778	d _ t	-0.114513
-1.381110	d _ u	-0.248697
-1.810086	d _ v	0.000000
-1.291428	d _ ə	-0.170795
-1.386380	d _ ɛ	-0.137514
-1.635356	d _ ɪ	-0.171138
-2.063212	d _ ʌ	0.000000
-1.001973	d a </s>	0.000000
-0.933758	d a _	-0.316548
-1.791126	d a d	-0.184866
-2.159593	d a dː	-0.082670
-1.203198	d a i	-0.252954
-1.584081	d a j	0.000000
-1.623632	d a k	0.000000
-1.438126	d a l	-0.031206
-1.383971	d a lː	-0.098843
-1.560629	d a m	0.000000
-1.263001	d a n	-0.157176
-1.465392	d a nː	-0.137514
-1.631606	d a p	-0.137514
-0.925233	d a r	-0.346724
-1.751964	d a s	0.000000
-1.295089	d a t	-0.172368
-1.498932	d a u	-0.155840
-1.469325	d a v	-0.155840
-1.623632	d a w	-0.227024
-0.900463	d e </s>	0.000000
-0.771480	d e _	-0.122425
-1.207942	d e l	0.000000
-1.406966	d e lː	-0.077193
-1.566997	d e m	-0.184866
-1.071604	d e n	-0.227024
-1.121200	d e r	0.000000
-1.495555	d e v	0.000000
-1.339201	d e ʃ	0.000000
-1.225085	d i </s>	0.000000
-0.876389	d i _	-0.224826
-1.112597	d i a	-0.221838
-1.806381	d i f	-0.212512
-2.174009	d i fː	0.000000
-1.407906	d i j	0.000000
-1.487188	d i k	-0.064829
-1.521338	d i l	0.000000
-1.079334	d i n	-0.199306
-1.827799	d i nː	-0.184866
-1.633334	d i o	-0.184866
-1.450564	d i r	-0.216094
-1.525696	d i s	-0.095560
-1.722979	d i sː	0.000000
-1.444830	d i t	-0.137514
-1.678434	d i tʃ	-0.176235
-2.098404	d i tː	-0.053330
-1.534128	d i v	-0.218258
-1.632027	d i z	-0.077193
-1.829265	d i ŋ	-0.053330
-1.422738	d i ə	-0.263775
-1.693639	d i ɡ	-0.227024
-1.279911	d i ʃ	-0.191810
-1.816244	d i ʒ	-0.114739
-0.320238	d iː n	0.000000
-0.884514	d j _	0.000000
-0.933002	d j e	-0.227024
-0.772680	d j o	-0.201241
-0.850280	d j ɛ	-0.137514
-0.303245	d l o	-0.227024
-0.801077	d o </s>	0.000000
-0.965114	d o _	-0.215042
-1.280740	d o k	-0.212512
-1.276524	d o l	-0.114739
-1.785289	d o lː	-0.184866
-1.523092	d o m	-0.082670
-0.816128	d o n	-0.186385
-1.305802	d o nː	-0.155840
-1.220702	d o r	-0.212512
-1.353818	d o s	-0.137514
-1.420866	d o v	-0.098843
-1.539526	d o z	-0.184866
-1.193745	d r </s>	0.000000
-1.047373	d r _	-0.041182
-0.883819	d r a	-0.153008
-1.577930	d r aː	-0.082670
-0.925246	d r e	-0.229377
-1.135353	d r i	0.000000
-1.214559	d r o	-0.082670
-0.930110	d r u	-0.207151
-1.011106	d r ə	-0.137514
-1.193974	d u </s>	0.000000
-1.226569	d u _	-0.061703
-1.347401	d u k	-0.082670
-1.267104	d u l	-0.064829
-0.866467	d u n	-0.227851
-1.469768	d u nː	-0.184866
-1.015844	d u r	-0.129808
-1.323080	d u s	-0.227024
-1.388063	d u tʃ	0.000000
-1.639692	d u tː	-0.082670
-1.397638	d u w	0.000000
-1.414170	d u z	-0.212512
-1.242999	d u ŋ	-0.098843
-1.596668	d u ʃ	-0.184866
-1.530565	d u ʒ	-0.227024
-0.682892	d ɔ _	-0.098843
-0.509220	d ɔ r	0.000000
-0.825314	d ə </s>	0.000000
-0.529753	d ə _	-0.445233
-2.051993	d ə f	-0.082670
-2.112734	d ə fː	-0.184866
-1.533037	d ə k	-0.186385
-1.417349	d ə l	-0.114137
-1.576277	d ə m	-0.155840
-1.026683	d ə n	-0.241073
-1.711677	d ə p	0.000000
-1.211080	d ə r	-0.180333
-1.316985	d ə s	-0.109053
-1.152443	d ə v	-0.188220
-1.512564	d ə z	-0.114739
-1.659312	d ə ʃ	-0.152731
-1.887799	d ə ʒ	-0.114137
-1.217327	d ɛ </s>	0.000000
-1.099271	d ɛ _	-0.078751
-1.430325	d ɛ k	-0.227024
-1.185698	d ɛ l	0.000000
-1.236029	d ɛ lː	-0.173396
-0.913730	d ɛ n	-0.227851
-1.268427	d ɛ nː	0.000000
-0.902162	d ɛ r	-0.111296
-1.178660	d ɛ s	-0.114997
-1.250560	d ɛ t	-0.184866
-1.385981	d ɛ v	0.000000
-1.735839	d ɛ z	0.000000
-1.715477	d ɛ ʃ	-0.184866
-1.582598	d ɛ ʒ	0.000000
-1.024372	d ɪ _	0.000000
-1.719633	d ɪ f	-0.064829
-1.188583	d ɪ k	-0.137514
-1.031936	d ɪ n	-0.177186
-1.530154	d ɪ r	-0.082670
-1.195335	d ɪ s	-0.114739
-1.173800	d ɪ t	-0.098843
-1.024604	d ɪ tʃ	-0.098843
-1.399720	d ɪ v	-0.137514
-1.250893	d ɪ ŋ	-0.093385
-1.349919	d ɪ ʃ	-0.139728
-1.476876	d ɪ ʒ	-0.064829
-0.195896	dz a _	-0.098843
-0.804712	dz o k	-0.184866
-0.837247	dz u nː	-0.184866
-0.270489	dz ə _	0.000000
-1.114603	dʒ _ a	-0.218162
-1.235851	dʒ _ d	-0.063337
-0.909380	dʒ _ e	-0.428999
-1.717755	dʒ _ f	0.000000
-1.206129	dʒ _ i	-0.129808
-1.574476	dʒ _ j	0.000000
-1.248970	dʒ _ k	0.000000
-0.965715	dʒ _ l	-0.241875
-1.482333	dʒ _ n	-0.227024
-1.414773	dʒ _ o	-0.197545
-1.247978	dʒ _ p	-0.077193
-1.380130	dʒ _ s	0.000000
-1.519592	dʒ _ t	0.000000
-1.413664	dʒ _ u	-0.263775
-1.573444	dʒ _ v	-0.137514
-1.664823	dʒ _ ɛ	0.000000
-1.137803	dʒ a </s>	0.000000
-0.788860	dʒ a _	-0.182895
-1.580711	dʒ a k	-0.101275
-1.687608	dʒ a kː	-0.184866
-1.322793	dʒ a l	0.000000
-1.655014	dʒ a lː	-0.053330
-1.274668	dʒ a n	-0.053330
-1.349173	dʒ a nː	-0.227024
-1.398446	dʒ a p	-0.098843
-0.922087	dʒ a r	-0.172529
-1.563865	dʒ a u	-0.184866
-1.352974	dʒ a v	-0.098843
-1.580711	dʒ a w	-0.184866
-0.787915	dʒ dʒ _	0.000000
-0.847103	dʒ dʒ a	-0.082670
-0.549475	dʒ dʒ ə	0.000000
-0.985093	dʒ e </s>	0.000000
-0.698562	dʒ e _	-0.120326
-1.158373	dʒ e j	-0.227024
-1.166797	dʒ e l	-0.137514
-0.855659	dʒ e n	-0.039371
-1.309523	dʒ e o	-0.137514
-1.183707	dʒ e r	0.000000
-0.891280	dʒ i </s>	0.000000
-0.797757	dʒ i _	-0.255862
-1.399013	dʒ i j	0.000000
-1.468282	dʒ i k	0.000000
-1.580571	dʒ i l	-0.082670
-0.898116	dʒ i n	-0.272350
-1.736094	dʒ i nː	0.000000
-1.304861	dʒ i o	-0.212512
-1.803718	dʒ i p	0.000000
-1.313014	dʒ i r	-0.078751
-1.137392	dʒ i s	-0.227024
-1.790922	dʒ i sː	-0.082670
-1.695518	dʒ i z	0.000000
-1.412091	dʒ i ə	-0.212512
-0.734751	dʒ iː n	-0.184866
-1.096856	dʒ o </s>	0.000000
-0.816262	dʒ o _	-0.086682
-1.563967	dʒ o f	-0.184866
-1.029894	dʒ o k	-0.205395
-1.554257	dʒ o kː	-0.082670
-0.854436	dʒ o n	-0.194979
-1.532664	dʒ o nː	-0.184866
-1.235988	dʒ o r	-0.184866
-1.210797	dʒ o s	-0.227024
-1.563967	dʒ o ɡ	-0.053330
-0.353914	dʒ oː k	-0.082670
-1.391689	dʒ u </s>	0.000000
-1.150997	dʒ u _	0.000000
-1.560487	dʒ u b	-0.082670
-1.538575	dʒ u d	0.000000
-1.442035	dʒ u k	-0.130769
-1.405331	dʒ u m	-0.184866
-0.576332	dʒ u n	-0.316832
-1.224885	dʒ u nː	-0.137514
-1.058729	dʒ u r	-0.143970
-1.226432	dʒ u s	0.000000
-1.502191	dʒ u w	0.000000
-0.453776	dʒ ɔ r	0.000000
-0.609124	dʒ ə </s>	0.000000
-0.561888	dʒ ə _	-0.366911
-0.996907	dʒ ə l	-0.208930
-1.165927	dʒ ə n	-0.082670
-1.005068	dʒ ə r	-0.063337
-1.360473	dʒ ə t	-0.137514
-0.666140	dʒ ɛ _	-0.136305
-0.788066	dʒ ɛ l	-0.223018
-0.893489	dʒ ɛ n	-0.146811
-1.154732	dʒ ɛ r	0.000000
-1.199610	dʒ ɛ s	0.000000
-1.008493	dʒ ɛ t	-0.077193
-0.961674	dʒ ɪ _	-0.078751
-1.150906	dʒ ɪ l	0.000000
-0.564712	dʒ ɪ n	-0.155840
-1.031603	dʒ ɪ s	-0.227024
-0.337510	dː e l	-0.184866
-0.904453	dː r </s>	0.000000
-0.875863	dː r _	0.000000
-0.859254	dː r a	-0.184866
-0.843765	dː r ə	0.000000
-0.739232	dː ə </s>	0.000000
-0.363250	dː ə _	-0.173396
-1.267677	e _ a	-0.449382
-1.554478	e _ b	-0.389736
-1.274151	e _ d	-0.592548
-1.410111	e _ dʒ	-0.514282
-1.451241	e _ e	-0.480091
-2.479864	e _ eː	0.000000
-1.336663	e _ f	-0.499386
-1.263874	e _ i	-0.353251
-1.642943	e _ j	-0.454935
-1.219184	e _ k	-0.586360
-1.249501	e _ l	-0.645676
-1.303181	e _ m	-0.459774
-1.255306	e _ n	-0.519638
-1.672349	e _ o	-0.288253
-1.218897	e _ p	-0.576537
-1.595761	e _ r	-0.237412
-1.180751	e _ s	-0.649795
-2.867553	e _ sː	0.000000
-1.352321	e _ t	-0.532149
-1.526094	e _ tʃ	-0.318793
-1.405722	e _ u	-0.626205
-1.480745	e _ v	-0.358256
-1.942697	e _ w	-0.170795
-2.107042	e _ ə	-0.137514
-1.872544	e _ ɛ	-0.274097
-2.055558	e _ ɡ	-0.114739
-1.629655	e _ ɪ	-0.606198
-1.674953	e _ ʃ	-0.173232
-2.527434	e _ ʊ	-0.137514
-2.620812	e _ ʌ	0.000000
-1.952434	e _ ʎ	-0.342956
-2.415974	e _ ʒ	0.000000
-0.799126	e a l	-0.039371
-1.075171	e a nː	-0.082670
-0.796867	e a t	-0.053330
-0.619240	e b e	-0.184866
-0.591138	e b i	-0.053330
-0.768507	e d a	-0.114137
-0.813918	e d i	-0.053330
-1.208373	e d r	-0.184866
-0.734490	e d ə	-0.137514
-0.431865	e dʒ </s>	0.000000
-0.959099	e dʒ e	0.000000
-1.041679	e dʒ i	-0.184866
-0.893305	e dʒ ə	-0.137514
-0.270929	e dː ə	-0.227024
-0.502696	e f ə	-0.184866
-0.412570	e h </s>	0.000000
-0.485484	e h _	-0.039371
-0.252235	e i _	-0.220496
-1.133837	e i s	0.000000
-0.654251	e j </s>	0.000000
-0.489351	e j _	-0.375803
-1.118769	e j a	-0.078751
-1.967966	e j k	-0.082670
-0.673454	e j ə	-0.767247
-2.024991	e j ɣ	-0.082670
-0.935406	e k </s>	0.000000
-0.665625	e k _	-0.093385
-1.590546	e k h	-0.184866
-1.260201	e k i	0.000000
-1.132901	e k j	-0.155840
-0.968698	e k o	-0.082670
-0.910582	e k ə	-0.137514
-0.969677	e kː j	-0.184866
-0.770305	e kː o	-0.184866
-0.566026	e kː ə	-0.227024
-1.228066	e l </s>	0.000000
-0.901289	e l _	0.000000
-1.195105	e l a	-0.053330
-0.940428	e l e	-0.129808
-0.833221	e l i	-0.098843
-1.282948	e l o	0.000000
-1.830458	e l oː	-0.184866
-1.709775	e l t	0.000000
-1.208766	e l u	-0.212512
-0.795178	e l ə	-0.342956
-0.784050	e lː a	-0.137514
-0.580621	e lː e	-0.197545
-0.989673	e lː u	-0.227024
-0.726977	e lː ə	-0.137514
-0.812463	e m _	0.000000
-0.816686	e m a	-0.212512
-0.997710	e m b	0.000000
-0.982781	e m p	0.000000
-0.774779	e n </s>	0.000000
-0.659679	e n _	-0.418337
-1.365676	e n a	-0.415065
-1.222736	e n d	-0.158222
-1.798413	e n dʒ	-0.184866
-1.524239	e n e	0.000000
-1.822575	e n f	-0.184866
-1.235537	e n i	-0.078751
-1.623139	e n j	0.000000
-1.722696	e n s	-0.082670
-0.968814	e n t	-0.231212
-1.913802	e n tʃ	-0.184866
-1.426227	e n z	-0.077193
-0.995997	e n ə	-0.470392
-0.834773	e nː </s>	0.000000
-0.855819	e nː _	-0.053703
-0.967080	e nː a	-0.227024
-0.370367	e nː ə	-0.553367
-0.858274	e o </s>	0.000000
-0.834767	e o _	-0.227024
-1.088212	e o n	-0.184866
-1.268092	e o p	-0.184866
-0.988302	e o ɡ	-0.082670
-1.199605	e r </s>	0.000000
-1.022441	e r _	-0.098843
-1.142605	e r a	-0.114137
-0.851132	e r e	-0.063337
-0.824185	e r i	-0.193277
-1.664038	e r k	-0.184866
-1.480653	e r m	-0.053330
-1.472749	e r n	0.000000
-1.060824	e r o	-0.114739
-1.609218	e r s	0.000000
-0.993193	e r ə	-0.415065
-0.766719	e s </s>	0.000000
-0.631602	e s _	-0.077193
-1.158037	e s a	-0.137514
-1.256637	e s i	0.000000
-0.588369	e s t	-0.313606
-1.398912	e s ə	-0.184866
-0.946271	e sː a	-0.184866
-0.718004	e sː e	0.000000
-0.442762	e sː ə	-0.227024
-0.715658	e t </s>	0.000000
-0.591057	e t _	-0.404615
-0.943181	e t a	-0.173498
-1.308765	e t e	-0.121274
-1.685953	e t o	-0.082670
-1.305395	e t s	-0.063337
-0.640676	e t ə	-0.790065
-1.026736	e tʃ </s>	0.000000
-0.827554	e tʃ _	-0.114997
-0.847003	e tʃ e	-0.137514
-0.815095	e tʃ i	0.000000
-0.800729	e tʃ ə	-0.082670
-0.885471	e tː _	0.000000
-0.869246	e tː a	-0.218258
-1.211532	e tː e	-0.212512
-1.254625	e tː u	0.000000
-0.403890	e tː ə	-0.503680
-0.339444	e u t	-0.184866
-1.014848	e v _	0.000000
-0.690452	e v a	-0.342956
-1.039300	e v i	-0.082670
-1.184744	e v r	0.000000
-0.484328	e v ə	-0.466217
-0.301916	e w _	0.000000
-0.794542	e z </s>	0.000000
-0.620488	e z _	-0.137514
-0.756787	e z i	-0.197545
-0.898307	e z ə	-0.137514
-1.060820	e z ɛ	0.000000
-0.605257	e ŋ </s>	0.000000
-0.333490	e ŋ _	-0.069580
-0.385104	e ə </s>	0.000000
-0.574114	e ə _	0.000000
-0.880387	e ɡ a	-0.064829
-1.113421	e ɡ aː	0.000000
-0.751754	e ɡ o	-0.137514
-0.953428	e ɡ u	-0.184866
-0.779242	e ɡ ə	-0.053330
-0.688003	e ɡː o	-0.184866
-0.686593	e ɡː u	-0.184866
-0.492774	e ɡː ə	-0.184866
-0.333709	e ɣ </s>	0.000000
-0.668771	e ɣ _	0.000000
-0.817736	e ʃ a	-0.137514
-1.008856	e ʃ i	-0.184866
-0.905812	e ʃ k	0.000000
-0.782718	e ʃ ə	-0.137514
-0.646188	e ʎ ə	-0.184866
-0.348444	e ʎː ə	-0.290126
-0.964971	eː _ a	-0.098843
-1.112209	eː _ d	-0.053330
-1.357593	eː _ dʒ	0.000000
-1.242117	eː _ i	-0.053330
-1.270561	eː _ l	0.000000
-1.126127	eː _ p	0.000000
-1.175209	eː _ r	0.000000
-1.296257	eː _ s	0.000000
-0.260794	eː j ə	-0.294455
-0.645427	eː n </s>	0.000000
-0.662720	eː n d	-0.227024
-0.913197	eː n ə	-0.184866
-0.872856	eː t </s>	0.000000
-0.396899	eː t ə	-0.342956
-0.255815	eː ə </s>	0.000000
-0.810470	f _ i	-0.227024
-0.834027	f _ n	0.000000
-1.225675	f a </s>	0.000000
-1.196238	f a _	-0.138374
-1.669861	f a d	-0.184866
-1.538618	f a dʒ	-0.227024
-1.631857	f a e	-0.212512
-1.426819	f a i	-0.137514
-1.459288	f a j	-0.114513
-1.408788	f a l	-0.082670
-1.333843	f a m	-0.053330
-1.035230	f a n	-0.244751
-1.188542	f a nː	-0.282070
-1.406927	f a r	-0.176235
-1.305780	f a t	-0.148877
-1.411693	f a tʃ	-0.105418
-1.495141	f a tː	-0.105332
-1.579270	f a v	-0.082670
-1.649763	f a w	-0.082670
-1.330645	f a ŋ	-0.212512
-1.397972	f a ʃ	-0.129581
-1.043015	f e </s>	0.000000
-0.902720	f e _	-0.161894
-1.430860	f e i	-0.184866
-1.262553	f e j	-0.114137
-1.543971	f e lː	0.000000
-1.483238	f e m	0.000000
-1.090193	f e n	-0.212512
-1.254875	f e nː	-0.148877
-1.303034	f e r	-0.184866
-1.150608	f e s	0.000000
-1.138617	f e t	-0.184866
-0.539146	f eː _	0.000000
-0.565972	f eː t	-0.039371
-1.170543	f i </s>	0.000000
-1.110285	f i _	-0.121630
-1.089553	f i a	-0.125047
-1.463065	f i j	-0.114137
-1.414241	f i k	-0.137514
-1.252418	f i l	-0.045298
-1.187930	f i n	-0.063337
-1.479448	f i nː	-0.137514
-1.377370	f i r	0.000000
-1.503428	f i s	0.000000
-1.513794	f i t	-0.082670
-1.346438	f i tʃ	-0.098843
-1.634548	f i u	-0.082670
-1.625921	f i z	-0.184866
-1.243700	f i ə	-0.155840
-1.558864	f i ɛ	0.000000
-1.711078	f i ʃ	0.000000
-1.477887	f i ʎ	-0.209667
-1.932566	f i ʎː	-0.184866
-0.883007	f j a	-0.184866
-0.735838	f j o	0.000000
-0.588537	f j u	-0.148877
-0.887543	f l </s>	0.000000
-0.881242	f l _	0.000000
-0.405971	f l ə	-0.357073
-1.045069	f o _	0.000000
-1.590941	f o dʒ	-0.184866
-0.812783	f o n	-0.137514
-0.585909	f o r	-0.159216
-1.136749	f o t	-0.148877
-1.619272	f o ʎ	-0.053330
-0.868267	f r a	-0.135427
-1.047124	f r e	0.000000
-0.872774	f r i	-0.039371
-1.456200	f r iː	-0.184866
-1.245577	f r o	-0.184866
-1.243527	f r u	-0.184866
-0.968962	f r ə	0.000000
-1.037853	f r ɛ	-0.137514
-1.268169	f u dʒ	-0.137514
-1.117735	f u l	-0.053330
-0.775304	f u n	-0.126620
-1.172269	f u o	-0.227024
-0.805985	f u r	-0.105332
-1.132650	f u t	0.000000
-1.208985	f u ʃ	-0.227024
-0.882666	f w a	-0.184866
-0.515647	f w o	-0.290126
-0.738495	f w u	-0.082670
-0.453776	f ɔ r	-0.137514
-1.006316	f ə </s>	0.000000
-0.946606	f ə _	0.000000
-1.443083	f ə k	-0.184866
-1.177439	f ə l	-0.227024
-1.498012	f ə m	-0.184866
-0.942514	f ə n	-0.175016
-0.668488	f ə r	-0.158222
-1.571596	f ə s	0.000000
-1.456009	f ə t	-0.184866
-1.649319	f ə tʃ	-0.184866
-1.384453	f ə ʃ	-0.212512
-1.427505	f ə ʎ	-0.227024
-1.630340	f ə ʒ	0.000000
-1.255917	f ɛ </s>	0.000000
-1.089895	f ɛ _	0.000000
-1.307196	f ɛ d	0.000000
-1.282827	f ɛ n	-0.053330
-1.459931	f ɛ nː	-0.082670
-0.665140	f ɛ r	-0.193215
-1.170810	f ɛ s	-0.114137
-1.543702	f ɛ sː	0.000000
-0.979824	f ɛ t	-0.129808
-1.148378	f ɛ tː	-0.082670
-1.589316	f ɛ ʃ	-0.031206
-0.986715	f ɪ l	-0.184866
-0.876531	f ɪ n	-0.184866
-1.233725	f ɪ ʎ	-0.064829
-1.280284	f ɪ ʎː	-0.184866
-0.984986	fp _ f	0.000000
-0.934358	fp _ l	-0.227024
-1.194577	fp _ m	0.000000
-0.946377	fp _ s	0.000000
-0.559019	fː e </s>	0.000000
-0.808296	fː i sː	-0.184866
-0.618884	fː ə k	-0.184866
-0.595255	fː ə r	-0.184866
-0.690556	fː ɛ t	-0.212512
-0.947110	fː ɛ tː	-0.184866
-1.169165	h _ a	-0.082670
-1.355765	h _ d	0.000000
-1.067684	h _ e	-0.137514
-1.268025	h _ j	-0.082670
-1.210966	h _ k	-0.053330
-1.177098	h _ l	-0.160545
-1.365597	h _ n	0.000000
-1.209655	h _ p	-0.053330
-1.359947	h _ s	-0.114137
-1.228215	h _ u	-0.137514
-1.428229	h _ ɪ	-0.184866
-0.424589	h e _	0.000000
-1.239392	i _ a	-0.527818
-1.529488	i _ b	-0.308337
-1.212621	i _ d	-0.778444
-1.345516	i _ dʒ	-0.503168
-1.422199	i _ e	-0.544430
-1.468856	i _ f	-0.503919
-2.567971	i _ fp	0.000000
-1.269977	i _ i	-0.489390
-1.562226	i _ j	-0.417235
-1.231199	i _ k	-0.675737
-1.194801	i _ l	-0.732133
-1.407306	i _ m	-0.522654
-1.316533	i _ n	-0.440583
-1.583273	i _ o	-0.482964
-1.381052	i _ p	-0.577478
-1.635608	i _ r	-0.294655
-1.244693	i _ s	-0.648736
-1.516834	i _ t	-0.451171
-1.607033	i _ tʃ	-0.339542
-1.487224	i _ u	-0.444639
-1.470381	i _ v	-0.495972
-1.937556	i _ w	-0.321630
-1.882572	i _ z	-0.114997
-1.716709	i _ ə	-0.206732
-1.550676	i _ ɛ	-0.439877
-1.801170	i _ ɡ	-0.132105
-1.588192	i _ ɪ	-0.501788
-1.582848	i _ ʃ	-0.333616
-1.805782	i _ ʎ	-0.259347
-2.372330	i _ ʒ	-0.137514
-0.824743	i a </s>	0.000000
-0.774595	i a _	-0.433660
-1.268733	i a i	-0.199088
-1.262849	i a l	-0.252624
-2.086862	i a lː	0.000000
-1.271845	i a m	-0.271226
-2.005603	i a mː	-0.212512
-0.910782	i a n	-0.441888
-1.688635	i a nː	-0.197545
-1.836356	i a o	-0.148877
-1.262232	i a r	-0.163421
-1.199933	i a t	-0.355818
-1.990447	i a tː	-0.082670
-1.451564	i a u	-0.333425
-1.794393	i a v	-0.137514
-1.733559	i a w	-0.207151
-1.536943	i a ŋ	-0.203896
-2.026248	i a ʃ	-0.082670
-2.034139	i a ʒ	0.000000
-0.478320	i aː _	0.000000
-0.672863	i aː t	-0.184866
-1.109440	i b </s>	0.000000
-0.759713	i b i	-0.290126
-1.092729	i b r	-0.039371
-0.842317	i b ə	-0.227024
-1.167765	i d </s>	0.000000
-0.724172	i d _	-0.039371
-0.972286	i d a	-0.082670
-1.157570	i d o	-0.227024
-0.538284	i d ə	-0.354315
-1.175705	i d ɛ	-0.227024
-0.795747	i dʒ i	-0.082670
-0.995273	i dʒ iː	-0.227024
-0.727216	i dʒ ɛ	-0.137514
-0.682524	i e _	-0.046616
-1.707221	i e d	-0.039371
-0.659956	i e n	-0.229377
-1.491937	i e r	-0.184866
-1.351761	i e s	0.000000
-0.957072	i e t	-0.170795
-1.376539	i e tʃ	-0.148877
-1.431664	i e v	-0.227024
-1.735489	i e ɡ	-0.082670
-0.853192	i f i	-0.227024
-1.087414	i f o	-0.184866
-1.085199	i f u	-0.184866
-1.303783	i f ɔ	0.000000
-0.784442	i f ə	-0.227024
-0.857095	i f ɛ	-0.227024
-0.309575	i fː ɛ	0.000000
-0.777259	i j </s>	0.000000
-0.676298	i j _	-0.339739
-0.864536	i j a	-0.333014
-1.479375	i j e	-0.212512
-1.432656	i j o	-0.212512
-1.113437	i j u	-0.141454
-0.694164	i j ə	-0.854397
-1.171783	i j ɛ	-0.150195
-1.794140	i j ɪ	0.000000
-1.257800	i k </s>	0.000000
-1.041452	i k _	-0.109053
-0.857091	i k a	-0.330588
-1.015588	i k e	-0.126620
-0.991933	i k i	-0.143182
-1.585265	i k j	-0.184866
-1.255613	i k l	-0.342956
-1.069602	i k o	-0.313041
-1.290215	i k u	-0.290126
-0.777376	i k ə	-0.496009
-1.451700	i k ɛ	-0.114137
-0.948354	i kː e	-0.227024
-0.739490	i kː i	-0.148877
-0.920609	i kː o	-0.184866
-0.684086	i kː ə	-0.212512
-0.898991	i l </s>	0.000000
-0.587726	i l _	-0.280815
-1.142613	i l a	-0.077193
-1.256577	i l e	-0.194979
-0.965261	i l i	-0.173883
-1.173841	i l j	-0.257430
-1.001147	i l ə	-0.343979
-1.143708	i l ɛ	-0.063337
-1.554369	i l ʎ	-0.125668
-0.539139	i lː e	-0.342956
-0.447260	i lː ə	-0.409903
-0.984140	i lː ɛ	0.000000
-1.150643	i m </s>	0.000000
-0.774994	i m _	-0.148877
-0.778472	i m a	-0.064829
-1.281904	i m b	-0.184866
-1.005996	i m o	-0.171138
-1.095118	i m p	-0.227024
-0.909848	i n </s>	0.000000
-0.848045	i n _	-0.550069
-1.043462	i n a	-0.392177
-1.264960	i n d	-0.314247
-1.510749	i n dʒ	-0.173396
-1.602706	i n e	-0.261324
-1.767418	i n f	-0.039371
-1.139450	i n i	-0.205700
-1.494748	i n j	-0.101734
-1.848216	i n k	0.000000
-1.233368	i n o	-0.411773
-1.934846	i n s	-0.053330
-1.353973	i n t	-0.282631
-1.830181	i n tʃ	-0.160545
-1.952558	i n u	0.000000
-2.131432	i n v	-0.184866
-1.566522	i n z	-0.078751
-2.280298	i n ɔ	-0.184866
-0.871457	i n ə	-0.974373
-1.892543	i n ɛ	0.000000
-1.482649	i n ɡ	-0.136320
-2.152348	i n ɲ	0.000000
-0.790776	i nː </s>	0.000000
-0.955828	i nː _	-0.077193
-0.959268	i nː a	-0.137514
-0.329456	i nː ə	-0.716095
-1.184657	i o </s>	0.000000
-0.634603	i o _	-0.110137
-1.061958	i o l	-0.098843
-0.556754	i o n	-0.354089
-1.746530	i o p	-0.184866
-1.290702	i o r	-0.114137
-1.358974	i o t	-0.101275
-1.680849	i o v	-0.184866
-1.194164	i p </s>	0.000000
-1.012552	i p _	-0.053330
-1.151204	i p a	-0.184866
-1.078474	i p e	0.000000
-0.620455	i p o	-0.137514
-1.232532	i p u	-0.082670
-0.997280	i p ə	-0.212512
-0.960362	i r </s>	0.000000
-0.540512	i r _	-0.332441
-1.100102	i r a	-0.171138
-1.680291	i r e	-0.184866
-1.212666	i r i	-0.138788
-1.637617	i r t	-0.053330
-0.590626	i r ə	-0.751464
-1.403216	i r ɛ	-0.053330
-2.031853	i r ɡ	0.000000
-0.390664	i rː ə	0.000000
-1.090954	i s </s>	0.000000
-0.620166	i s _	-0.253923
-1.459794	i s a	-0.053330
-1.035208	i s i	-0.068090
-1.680501	i s j	-0.082670
-1.177679	i s k	-0.031206
-0.601916	i s t	-0.334814
-1.116760	i s ə	-0.263775
-1.500712	i s ɛ	-0.212512
-0.897524	i sː a	-0.227024
-0.958122	i sː i	0.000000
-0.283283	i sː ə	-0.467895
-0.770746	i t </s>	0.000000
-0.733692	i t _	-0.288387
-0.890754	i t a	-0.347394
-1.521192	i t i	0.000000
-1.123578	i t o	-0.193277
-1.065987	i t s	-0.276883
-1.598515	i t z	-0.194979
-0.694571	i t ə	-0.676784
-2.095125	i t ʒ	-0.184866
-0.923396	i tʃ </s>	0.000000
-0.696872	i tʃ _	-0.158973
-1.180486	i tʃ a	-0.098843
-1.282989	i tʃ e	-0.053330
-0.751837	i tʃ i	-0.123140
-1.358265	i tʃ o	-0.184866
-0.895071	i tʃ ə	-0.193277
-0.926564	i tʃ ɛ	-0.114997
-0.868463	i tː _	0.000000
-0.574251	i tː ə	-0.227024
-1.242239	i u </s>	0.000000
-1.188049	i u _	0.000000
-1.250111	i u m	-0.227024
-0.416431	i u n	-0.310780
-1.253353	i u nː	-0.227024
-1.485190	i u o	-0.184866
-1.396652	i u r	-0.053330
-1.421473	i u t	-0.130769
-1.284671	i u ŋ	-0.082670
-1.368514	i v </s>	0.000000
-0.817467	i v _	-0.252908
-0.624735	i v a	-0.380281
-1.164267	i v i	-0.053330
-1.411069	i v r	-0.114739
-1.693733	i v u	0.000000
-0.590550	i v ə	-0.707090
-1.072068	i v ɛ	-0.150195
-0.893903	i z </s>	0.000000
-0.573062	i z _	-0.160178
-1.306625	i z e	0.000000
-0.854655	i z i	-0.095878
-0.635915	i z ə	-0.498575
-0.743262	i ŋ </s>	0.000000
-0.689394	i ŋ _	-0.069580
-1.294190	i ŋ dʒ	0.000000
-1.190615	i ŋ k	-0.141062
-1.032200	i ŋ ə	-0.137514
-0.560705	i ŋ ɡ	-0.208206
-0.606979	i ɔ r	-0.227024
-0.773965	i ɔ t	-0.212512
-0.466383	i ə </s>	0.000000
-0.467994	i ə _	-0.447706
-1.203215	i ə l	-0.150195
-1.633563	i ə n	0.000000
-0.927852	i ə r	-0.278844
-0.874851	i ɛ l	-0.203896
-1.277748	i ɛ lː	-0.197545
-0.947937	i ɛ n	-0.195366
-0.666874	i ɛ r	-0.180333
-1.562999	i ɛ rː	-0.137514
-0.914182	i ɛ t	-0.114739
-1.813154	i ɛ tʃ	-0.114137
-1.309597	i ɛ tː	0.000000
-1.432975	i ɛ v	-0.184866
-1.892111	i ɛ ʎ	-0.082670
-0.926990	i ɡ _	0.000000
-1.008590	i ɡ a	-0.082670
-0.989461	i ɡ j	-0.227024
-0.982690	i ɡ o	-0.184866
-0.807649	i ɡ u	-0.227024
-0.883718	i ɡ ə	-0.082670
-0.291580	i ɣ </s>	0.000000
-0.484062	i ɣ _	-0.063337
-0.483896	i ɪ l	-0.290126
-1.004738	i ɪ n	0.000000
-0.938476	i ɪ t	0.000000
-0.623996	i ɲ a	-0.082670
-0.893066	i ɲ i	-0.184866
-1.409034	i ʃ </s>	0.000000
-1.080659	i ʃ _	-0.114314
-1.049749	i ʃ a	-0.143232
-1.286127	i ʃ e	-0.212512
-0.760803	i ʃ i	-0.189216
-1.153388	i ʃ k	-0.105332
-1.516537	i ʃ o	-0.053330
-1.205654	i ʃ p	-0.063337
-1.033118	i ʃ u	-0.274160
-0.916207	i ʃ ə	-0.243836
-1.285427	i ʃ ɛ	0.000000
-1.433934	i ʃ ɪ	-0.082670
-1.041332	i ʎ </s>	0.000000
-0.808584	i ʎ _	-0.243554
-0.728573	i ʎ a	-0.310832
-1.366255	i ʎ e	-0.039371
-1.093946	i ʎ i	-0.197545
-1.413335	i ʎ o	0.000000
-0.560460	i ʎ ə	-0.471303
-1.247441	i ʎ ɛ	-0.114137
-0.585384	i ʎː ə	-0.184866
-0.891802	i ʒ </s>	0.000000
-0.772280	i ʒ u	-0.148877
-0.807401	i ʒ ə	-0.184866
-0.928923	iː _ e	0.000000
-0.777768	iː _ l	0.000000
-0.268207	iː j ə	-0.197545
-0.424560	iː k ə	-0.227024
-0.761905	iː n </s>	0.000000
-0.455556	iː n ə	-0.409903
-0.190235	iː r ə	-0.197545
-0.186898	iː t ə	-0.227024
-0.197520	iː ə </s>	0.000000
-0.688805	iː ə _	0.000000
-1.008399	j _ a	-0.341932
-1.193075	j _ d	-0.231058
-1.549751	j _ dʒ	-0.114739
-1.360464	j _ e	-0.273470
-1.575691	j _ f	-0.098843
-1.050696	j _ i	-0.216994
-1.686052	j _ j	0.000000
-1.509671	j _ k	-0.170938
-1.350043	j _ l	-0.247856
-1.292609	j _ m	-0.121274
-1.372405	j _ n	-0.158033
-1.533231	j _ o	-0.290126
-1.381195	j _ p	-0.143232
-1.194920	j _ s	-0.176603
-1.620971	j _ t	-0.077193
-1.531879	j _ u	-0.207151
-1.436081	j _ v	0.000000
-1.656388	j _ ə	-0.227024
-1.301708	j _ ɛ	-0.224288
-1.761920	j _ ɡ	0.000000
-1.550189	j _ ɪ	-0.098843
-1.778211	j _ ʎ	-0.227024
-0.947562	j a </s>	0.000000
-0.728273	j a _	-0.397112
-1.841329	j a h	-0.082670
-1.763548	j a j	0.000000
-1.566752	j a l	0.000000
-1.482104	j a m	-0.148877
-0.960150	j a n	-0.320009
-1.485917	j a nː	-0.150195
-1.310650	j a r	-0.039371
-1.958788	j a rː	-0.184866
-0.973155	j a t	-0.410926
-1.646220	j a tː	-0.098843
-1.601807	j a v	-0.212512
-1.138342	j a w	-0.343979
-0.530777	j d a	-0.184866
-1.092049	j e </s>	0.000000
-0.381903	j e _	-0.213150
-0.998388	j e n	-0.261324
-1.163648	j e t	-0.171138
-1.512723	j e ŋ	-0.184866
-0.358984	j eː ŋ	0.000000
-1.193951	j i </s>	0.000000
-0.671948	j i _	-0.139873
-0.625996	j i a	-0.195366
-1.550860	j i d	-0.082670
-1.273940	j i r	-0.082670
-1.471894	j i t	-0.184866
-1.290538	j i ɛ	0.000000
-0.645515	j k ə	-0.184866
-0.299313	j n _	0.000000
-1.432676	j o </s>	0.000000
-0.816203	j o _	-0.143232
-0.768319	j o k	-0.454816
-1.337516	j o kː	-0.290126
-1.343281	j o l	0.000000
-0.698653	j o n	-0.294455
-0.918879	j o r	-0.348874
-1.563155	j o ŋ	-0.053330
-0.769850	j s _	-0.184866
-0.550917	j s t	-0.082670
-0.567567	j t a	-0.184866
-0.983113	j u </s>	0.000000
-1.056848	j u _	-0.170938
-0.539900	j u n	-0.267996
-1.387101	j u nː	-0.148877
-1.332907	j u r	-0.205433
-1.272070	j u s	-0.148877
-1.246452	j u t	-0.212512
-1.477516	j u z	-0.227024
-1.433576	j u ŋ	-0.137514
-1.768517	j u ɡ	0.000000
-0.280931	j v ə	-0.227024
-0.974045	j ɔ k	-0.184866
-0.624120	j ɔ r	-0.212512
-0.781734	j ɔ t	0.000000
-0.403340	j ə </s>	0.000000
-0.338631	j ə _	-0.347365
-1.656546	j ə v	-0.184866
-1.186337	j ɛ </s>	0.000000
-0.710922	j ɛ _	-0.164734
-1.057543	j ɛ n	-0.358234
-1.185882	j ɛ r	-0.137514
-1.228309	j ɛ s	-0.290126
-0.607915	j ɛ t	-0.422888
-1.310852	j ɛ tː	0.000000
-1.613244	j ɛ v	-0.082670
-1.599901	j ɛ ŋ	-0.137514
-0.470162	j ɣ _	0.000000
-0.597435	j ɪ _	0.000000
-0.970308	k _ a	-0.306262
-1.206990	k _ d	-0.126620
-1.134938	k _ e	-0.439118
-1.011003	k _ i	-0.224222
-1.723107	k _ j	-0.053330
-1.216352	k _ k	-0.153555
-1.278508	k _ l	-0.325175
-1.294036	k _ n	0.000000
-1.421230	k _ o	-0.342956
-1.543558	k _ p	-0.098843
-1.208562	k _ s	-0.149609
-1.564914	k _ t	-0.053330
-1.091528	k _ u	-0.283699
-1.696359	k _ ə	-0.137514
-1.425256	k _ ɛ	-0.173396
-1.684701	k _ ɪ	-0.227024
-1.826285	k _ ʃ	0.000000
-2.139129	k _ ʌː	-0.184866
-1.804985	k _ ʎ	-0.227024
-1.105072	k a </s>	0.000000
-0.949252	k a _	-0.315419
-1.708996	k a b	-0.093385
-1.705871	k a d	-0.155840
-1.839608	k a dʒ	-0.082670
-1.925627	k a f	-0.114137
-2.372573	k a fː	-0.082670
-1.702601	k a i	-0.148877
-1.741595	k a j	-0.227024
-1.691978	k a k	-0.194059
-1.900213	k a kː	0.000000
-1.392501	k a l	-0.191420
-1.409188	k a m	-0.149383
-1.985432	k a mː	-0.212512
-1.005293	k a n	-0.383138
-1.636951	k a nː	-0.171138
-1.556201	k a p	-0.162585
-1.768158	k a pː	-0.155840
-1.058067	k a r	-0.186103
-1.920320	k a rː	-0.148877
-1.679248	k a s	-0.205433
-1.873317	k a sː	-0.193277
-1.191318	k a t	-0.331800
-1.549017	k a tː	-0.274160
-1.770788	k a u	-0.107602
-1.641717	k a v	-0.194979
-1.788313	k a w	-0.114997
-1.596436	k a z	-0.199383
-2.387274	k a zː	0.000000
-1.966583	k a ɡ	-0.186385
-2.097222	k a ɡː	0.000000
-1.815635	k a ʃ	-0.039371
-2.252516	k a ʒ	-0.184866
-0.921796	k aː m	-0.184866
-0.472377	k aː t	0.000000
-1.095073	k e </s>	0.000000
-0.633484	k e _	-0.351802
-1.254872	k e i	-0.137514
-1.159585	k e j	-0.194979
-1.602551	k e k	-0.053330
-1.438391	k e r	0.000000
-0.908078	k e t	-0.207151
-1.052928	k e tː	-0.294455
-0.772079	k eː k	0.000000
-0.373933	k h </s>	0.000000
-0.648850	k h _	0.000000
-1.137378	k i </s>	0.000000
-0.863867	k i _	-0.277188
-1.080432	k i a	-0.117397
-1.510586	k i e	0.000000
-1.427619	k i j	-0.137514
-1.454577	k i l	0.000000
-1.049673	k i n	-0.114739
-1.353346	k i o	-0.197545
-1.004952	k i r	-0.320237
-1.458285	k i s	0.000000
-1.726623	k i u	-0.184866
-1.880249	k i ɔ	-0.184866
-1.340666	k i ə	0.000000
-1.384456	k i ɛ	-0.053330
-1.762611	k i ʎ	-0.082670
-1.114697	k j </s>	0.000000
-0.961664	k j _	-0.148877
-0.772554	k j a	-0.060481
-1.004031	k j e	-0.137514
-1.117821	k j i	-0.082670
-1.206532	k j u	-0.064829
-0.674135	k j ə	-0.357073
-1.198708	k l e	-0.184866
-0.994262	k l o	0.000000
-1.013573	k l u	0.000000
-0.794531	k l ə	0.000000
-0.683238	k l ɛ	-0.207151
-1.332531	k o </s>	0.000000
-1.039900	k o _	-0.069580
-1.829268	k o d	-0.184866
-1.504155	k o k	0.000000
-0.900341	k o l	-0.316300
-1.260382	k o m	-0.201383
-1.092269	k o n	-0.175158
-1.518888	k o p	-0.193277
-0.785813	k o r	-0.285731
-1.681805	k o rː	-0.171138
-1.257123	k o s	-0.155785
-1.343764	k o t	-0.194979
-1.627563	k o tʃ	-0.137514
-1.560432	k o tː	-0.098843
-1.417353	k o z	-0.114739
-1.192623	k r a	-0.039371
-1.290625	k r e	-0.082670
-0.685210	k r i	-0.139123
-1.009268	k r o	-0.148877
-1.303034	k r u	-0.082670
-0.932766	k r ə	-0.039371
-1.274993	k r ɛ	-0.039371
-1.054744	k r ɪ	-0.098843
-0.426274	k s </s>	0.000000
-1.587251	k u </s>	0.000000
-1.330702	k u _	-0.082670
-1.537538	k u a	-0.148877
-1.854286	k u b	-0.184866
-1.557979	k u d	-0.105332
-2.008989	k u dʒ	-0.082670
-1.554282	k u k	-0.175016
-1.103999	k u l	-0.228876
-1.430438	k u m	-0.178940
-1.882369	k u mː	-0.184866
-0.789769	k u n	-0.374077
-1.517974	k u nː	-0.137514
-1.467447	k u o	-0.205433
-1.324170	k u p	-0.227024
-1.103041	k u r	-0.203896
-1.438188	k u s	-0.155785
-1.757551	k u sː	-0.137514
-1.283865	k u t	-0.145396
-1.736315	k u tʃ	-0.095878
-1.681158	k u tː	-0.137514
-1.388593	k u z	-0.173396
-1.490195	k u ŋ	-0.064829
-1.823210	k u ɛ	-0.227024
-1.774022	k u ʃ	-0.082670
-0.489027	k w a	-0.265940
-1.421746	k w aː	-0.053330
-1.364863	k w e	-0.053330
-1.256413	k w i	-0.125668
-0.893823	k w o	-0.137514
-1.150910	k w ə	-0.227024
-0.978274	k w ɛ	-0.172529
-1.258469	k w ɪ	-0.148877
-1.034120	k ɔ </s>	0.000000
-1.055644	k ɔ l	0.000000
-1.433626	k ɔ m	0.000000
-0.921770	k ɔ n	0.000000
-0.720317	k ɔ r	-0.039371
-1.235678	k ɔ t	-0.053330
-1.464491	k ɔ tː	-0.082670
-0.520262	k ə </s>	0.000000
-0.597652	k ə _	-0.484239
-1.612376	k ə dʒ	-0.227024
-1.036281	k ə l	-0.207151
-1.597711	k ə m	-0.137514
-1.232877	k ə n	-0.063337
-1.172904	k ə t	-0.263775
-1.707366	k ə tʃ	-0.137514
-1.704322	k ə v	-0.184866
-1.884472	k ə ʃ	-0.184866
-1.730229	k ə ʎ	-0.212512
-1.088098	k ɛ </s>	0.000000
-0.630574	k ɛ _	-0.103782
-1.427362	k ɛ l	0.000000
-1.495737	k ɛ lː	-0.184866
-1.221668	k ɛ n	0.000000
-1.203859	k ɛ r	-0.227024
-0.790330	k ɛ t	-0.294455
-0.816671	k ɛ tː	-0.274097
-0.806620	k ɪ _	-0.137514
-0.832362	k ɪ l	-0.053330
-0.937822	k ɪ n	-0.184866
-0.919722	k ɪ r	-0.137514
-0.972103	k ʊ k	-0.184866
-0.789409	k ʌ m	-0.082670
-0.798226	kː a _	-0.184866
-0.835444	kː a n	-0.184866
-0.692402	kː e </s>	0.000000
-0.668265	kː e _	-0.138283
-0.954721	kː e n	-0.082670
-1.095963	kː i </s>	0.000000
-0.849790	kː i _	-0.082670
-0.925170	kː i a	-0.227024
-1.112419	kː i n	0.000000
-0.927236	kː i ə	-0.227024
-0.637700	kː j </s>	0.000000
-0.794683	kː j a	-0.184866
-0.803569	kː j ə	-0.184866
-0.534556	kː l </s>	0.000000
-0.670313	kː o </s>	0.000000
-0.839639	kː o l	-0.082670
-0.646621	kː u l	0.000000
-1.018038	kː u sː	-0.184866
-0.652666	kː ə </s>	0.000000
-0.451687	kː ə _	-0.138278
-1.031045	kː ə l	-0.212512
-1.241622	kː ə n	-0.130769
-1.239037	kː ə r	-0.184866
-0.567593	kː ɛ </s>	0.000000
-0.558133	kː ɛ _	0.000000
-0.310424	kː ɪ n	-0.184866
-1.182918	l _ a	-0.301884
-1.425618	l _ b	-0.112162
-1.232835	l _ d	-0.383629
-1.351496	l _ dʒ	-0.160540
-1.118857	l _ e	-0.481023
-1.686441	l _ f	-0.290126
-1.260016	l _ i	-0.378568
-1.936723	l _ j	0.000000
-1.285413	l _ k	-0.352937
-1.185933	l _ l	-0.400523
-1.468344	l _ m	-0.160540
-1.194615	l _ n	-0.240822
-1.404539	l _ o	-0.349411
-1.335805	l _ p	-0.242306
-1.934101	l _ r	0.000000
-1.193197	l _ s	-0.357512
-1.553558	l _ t	-0.170938
-1.718874	l _ tʃ	-0.098843
-1.292911	l _ u	-0.192885
-1.935453	l _ v	-0.227024
-1.675138	l _ ə	-0.207151
-1.659329	l _ ɛ	-0.162696
-1.898165	l _ ɡ	-0.137514
-1.411714	l _ ɪ	-0.355818
-2.121546	l _ ʌ	0.000000
-1.004756	l a </s>	0.000000
-0.860724	l a _	-0.395284
-1.419263	l a b	-0.205433
-1.700117	l a d	0.000000
-1.727679	l a dʒ	0.000000
-1.613902	l a i	0.000000
-1.410055	l a k	-0.121274
-1.750203	l a m	-0.082670
-1.077994	l a n	-0.239898
-1.629218	l a nː	-0.227024
-1.097379	l a r	-0.306311
-1.672691	l a s	-0.082670
-0.981521	l a t	-0.281767
-1.569168	l a tː	-0.125668
-1.559849	l a u	-0.159822
-1.271213	l a v	-0.283986
-1.685799	l a w	-0.137514
-2.051419	l a ɡ	-0.184866
-1.708219	l a ʃ	-0.137514
-0.601176	l aː </s>	0.000000
-0.577633	l aː t	0.000000
-0.825395	l b ə	-0.082670
-0.902413	l b ɛ	-0.184866
-0.878603	l d </s>	0.000000
-0.683441	l d a	-0.077193
-0.884035	l d ə	-0.184866
-0.864695	l e </s>	0.000000
-0.763677	l e _	-0.329889
-1.964505	l e a	-0.082670
-1.680216	l e dʒ	0.000000
-2.081311	l e f	-0.184866
-1.650898	l e h	-0.263775
-1.495205	l e i	-0.098843
-1.069052	l e j	-0.298785
-1.513299	l e k	-0.137514
-1.410315	l e n	0.000000
-1.643951	l e nː	-0.082670
-1.702310	l e o	-0.227024
-1.491875	l e s	-0.227024
-1.080862	l e t	-0.145396
-1.304630	l e tː	-0.114739
-1.486887	l e v	-0.137514
-1.791800	l e z	-0.082670
-1.837521	l e ŋ	0.000000
-1.565680	l e ɡ	0.000000
-1.999453	l e ɣ	0.000000
-0.665521	l eː j	-0.082670
-0.827135	l eː t	-0.184866
-1.189111	l i </s>	0.000000
-0.955295	l i _	-0.247304
-1.163649	l i a	-0.276254
-2.072173	l i b	-0.184866
-1.462326	l i e	-0.031206
-1.618375	l i j	-0.098843
-1.828365	l i lː	0.000000
-1.990226	l i m	-0.184866
-0.986836	l i n	-0.450298
-1.090342	l i nː	-0.439118
-1.654450	l i o	-0.082670
-1.719399	l i p	-0.197545
-1.669289	l i r	-0.114739
-1.427296	l i s	-0.227024
-1.845121	l i sː	-0.227024
-1.174359	l i t	-0.248697
-1.387755	l i tʃ	-0.077193
-1.493861	l i v	-0.129808
-1.644522	l i z	0.000000
-1.957699	l i ŋ	0.000000
-1.416826	l i ə	-0.290126
-1.700899	l i ɛ	-0.227024
-1.738412	l i ɣ	-0.137514
-1.967883	l i ɲ	-0.053330
-2.002802	l i ʃ	0.000000
-0.397866	l iː n	-0.263775
-1.068417	l iː t	-0.184866
-1.253109	l j </s>	0.000000
-0.770670	l j _	-0.162696
-0.742589	l j a	-0.196855
-1.260891	l j e	-0.227024
-1.817012	l j eː	-0.184866
-1.148279	l j i	-0.098843
-1.326514	l j u	0.000000
-0.927124	l j ə	-0.358234
-0.836928	l j ɛ	-0.212034
-1.453189	l j ɪ	-0.227024
-0.802214	l k </s>	0.000000
-0.870313	l k e	-0.227024
-1.038001	l k o	-0.184866
-1.022591	l k u	-0.039371
-1.083331	l k ɛ	-0.184866
-0.780246	l m a	-0.053330
-0.766439	l m i	-0.184866
-1.034761	l o </s>	0.000000
-0.652697	l o _	-0.316935
-1.326928	l o dʒ	-0.143970
-1.305542	l o k	-0.093385
-1.828572	l o kː	-0.184866
-1.486412	l o m	0.000000
-1.057898	l o n	-0.019239
-1.129317	l o r	-0.100193
-1.862142	l o rː	-0.082670
-1.481150	l o s	-0.227024
-1.321725	l o t	-0.197545
-1.461672	l o tʃ	0.000000
-1.694892	l o tː	-0.184866
-1.388494	l o z	-0.290126
-1.633368	l o ɡ	-0.227024
-0.615465	l oː </s>	0.000000
-0.710066	l oː n	-0.184866
-0.454701	l s ɛ	-0.227024
-0.810917	l t a	-0.150195
-1.187200	l t o	-0.184866
-1.006134	l t r	-0.155785
-1.134480	l t u	-0.082670
-0.764100	l t ə	-0.197545
-1.165873	l t ɛ	0.000000
-1.069128	l u </s>	0.000000
-0.882358	l u _	-0.237906
-1.537173	l u a	-0.031206
-1.659010	l u dʒ	0.000000
-1.566743	l u i	0.000000
-1.549046	l u m	0.000000
-0.807757	l u n	-0.287787
-1.431884	l u nː	-0.227024
-1.473185	l u r	-0.184866
-1.333704	l u s	-0.148877
-1.164977	l u t	-0.129581
-1.393379	l u tʃ	-0.208453
-1.681858	l u w	-0.184866
-1.417140	l u z	-0.137514
-1.488020	l u ŋ	-0.137514
-1.533892	l u ʃ	0.000000
-0.444886	l uː _	0.000000
-0.718434	l v a	-0.082670
-0.507309	l v i	-0.227024
-1.018120	l ɔ _	-0.101275
-0.990119	l ɔ dʒ	-0.171138
-1.166945	l ɔ k	0.000000
-0.592570	l ɔ r	-0.137514
-1.135967	l ɔ s	-0.227024
-1.240580	l ɔ t	0.000000
-0.420748	l ə </s>	0.000000
-0.582851	l ə _	-0.509757
-1.785998	l ə dʒ	0.000000
-1.445646	l ə l	-0.227024
-1.466225	l ə n	-0.082670
-1.319429	l ə s	-0.358234
-1.444324	l ə t	-0.137514
-1.156591	l ə v	-0.358234
-1.135604	l ɛ </s>	0.000000
-0.829695	l ɛ _	-0.223052
-1.609361	l ɛ dʒ	-0.053330
-1.731276	l ɛ f	-0.227024
-1.523161	l ɛ h	-0.263775
-1.568829	l ɛ m	0.000000
-1.151530	l ɛ n	-0.063337
-1.406742	l ɛ nː	0.000000
-1.331350	l ɛ r	0.000000
-1.394807	l ɛ s	0.000000
-0.732178	l ɛ t	-0.393873
-0.979518	l ɛ tː	-0.269439
-1.515419	l ɛ v	-0.082670
-1.866936	l ɛ z	0.000000
-0.937425	l ɪ _	-0.031206
-1.629161	l ɪ b	-0.082670
-1.137501	l ɪ dʒ	-0.114137
-1.195177	l ɪ l	0.000000
-0.961620	l ɪ n	-0.101275
-1.072845	l ɪ nː	0.000000
-1.288825	l ɪ v	-0.082670
-1.315206	l ɪ ŋ	-0.082670
-1.663604	l ɪ ʃː	0.000000
-0.318137	l ʌ dʒ	-0.227024
-0.774189	l ʎ _	-0.212512
-0.724458	l ʎ ə	-0.137514
-0.781026	l ʎ ɛ	0.000000
-1.164617	lː _ a	0.000000
-0.985188	lː _ e	-0.137514
-0.961178	lː _ i	-0.227024
-0.977272	lː _ l	-0.227024
-0.622724	lː a </s>	0.000000
-0.614631	lː a _	-0.126538
-0.939568	lː e </s>	0.000000
-0.476593	lː e _	-0.138398
-1.098757	lː e h	-0.137514
-0.993421	lː e t	0.000000
-0.899868	lː i </s>	0.000000
-0.798842	lː o </s>	0.000000
-0.636704	lː o _	-0.129808
-1.046104	lː o n	-0.082670
-1.016251	lː o r	-0.130769
-1.157129	lː u </s>	0.000000
-0.576035	lː u _	0.000000
-1.041926	lː u n	-0.082670
-1.172241	lː u nː	-0.114137
-0.400514	lː ə </s>	0.000000
-0.402041	lː ə _	-0.236278
-1.402270	lː ə v	-0.184866
-0.778373	lː ɛ </s>	0.000000
-0.760246	lː ɛ _	0.000000
-0.894551	lː ɛ h	-0.227024
-1.067250	m _ a	-0.210304
-1.278483	m _ b	-0.178520
-1.333690	m _ d	-0.093385
-1.100366	m _ dʒ	-0.170795
-1.328921	m _ e	-0.173498
-1.545845	m _ f	-0.261324
-1.060552	m _ i	-0.278844
-1.582652	m _ k	-0.098843
-1.535442	m _ l	-0.148877
-1.598468	m _ m	-0.098843
-1.339284	m _ n	0.000000
-1.608784	m _ o	-0.227024
-1.156886	m _ p	-0.053703
-1.233072	m _ s	-0.053330
-1.362165	m _ t	-0.098843
-1.362146	m _ u	-0.249587
-1.664734	m _ v	-0.205433
-1.532591	m _ ə	-0.137514
-1.615834	m _ ɛ	0.000000
-1.627692	m _ ɪ	0.000000
-1.157293	m a </s>	0.000000
-0.939075	m a _	-0.280302
-1.338541	m a d	-0.135427
-1.749777	m a dʒ	-0.063337
-2.259546	m a dː	-0.184866
-1.856461	m a e	-0.227024
-1.689412	m a f	-0.228265
-1.297027	m a i	-0.125848
-1.661314	m a j	-0.160545
-1.703721	m a k	-0.100193
-1.803435	m a kː	-0.222132
-1.206201	m a l	-0.200485
-1.636294	m a m	-0.171138
-1.877334	m a mː	-0.161103
-1.008493	m a n	-0.316856
-1.642156	m a nː	-0.098843
-1.286685	m a r	-0.223626
-2.008906	m a rː	-0.184866
-1.689395	m a s	-0.125668
-1.914741	m a sː	-0.212512
-1.283723	m a t	-0.165828
-1.748832	m a tʃ	0.000000
-1.817705	m a u	-0.184866
-1.647452	m a v	-0.101275
-1.403549	m a ŋ	-0.206463
-1.861157	m a ɡ	-0.098843
-2.268731	m a ɡː	-0.184866
-1.728322	m a ʃ	-0.227024
-1.851332	m a ʎ	-0.177948
-0.694526	m aː _	0.000000
-1.250426	m aː k	0.000000
-0.938137	m aː m	0.000000
-1.192495	m aː r	-0.184866
-1.221211	m aː ɡ	0.000000
-1.286066	m b </s>	0.000000
-0.791874	m b a	-0.246049
-1.332828	m b e	0.000000
-0.986753	m b i	-0.165264
-1.405498	m b o	-0.082670
-0.665925	m b r	-0.386221
-0.955915	m b ə	-0.261888
-1.159949	m b ɛ	-0.077193
-1.117091	m e </s>	0.000000
-0.880511	m e _	-0.188925
-1.348868	m e i	0.000000
-1.319070	m e j	-0.184866
-1.369245	m e k	-0.227024
-1.217742	m e l	0.000000
-1.655495	m e lː	0.000000
-0.956746	m e n	-0.234315
-1.372627	m e s	-0.082670
-1.439542	m e sː	0.000000
-1.134347	m e t	-0.125668
-1.442531	m e tː	-0.184866
-0.498675	m eː </s>	0.000000
-0.278124	m f a	-0.171138
-1.153284	m i </s>	0.000000
-0.983050	m i _	-0.298476
-1.524540	m i a	-0.114137
-1.607342	m i e	-0.039371
-1.297462	m i j	-0.214991
-1.502551	m i k	-0.078751
-1.451651	m i l	-0.228265
-1.719684	m i lː	-0.227024
